tree
version=v4
num_class=1
num_tree_per_iteration=1
label_index=0
max_feature_idx=10
objective=binary sigmoid:1
feature_names=close_lag_1 close_lag_2 rsi_lag_1 rsi_lag_2 macd_lag_1 adx_lag_1 volume_lag_1 volume_rolling_5 hour day_of_week month
feature_infos=[39568.019999999997:106133.74000000001] [39568.019999999997:106133.74000000001] [7.9357383444228162:94.209906485851562] [7.9357383444228162:94.209906485851562] [-2378.2340614090358:7019.055192193875] [11.773947951035582:56.860561126345807] [7308.9554200000002:162065.59185999999] [16478.777785999999:84718.523200399999] [0:23] [0:6] [1:12]
tree_sizes=3395 3402 3369 3398 3391 3399 3380 3392 3391 3382 3402 3396 3382 3408 3414 3383 3398 3405 3373 3375 3374 3364 3344 3373 3349 3348 3388 3376 3384 3372 3376 3371 3346 3361 3396 3384 3363 3388 3364 3369 3372 3378 3374 3346 3372 3373 3345 3331 3392 3394 3358 3355 3356 3364 3360 3369 3379 3359 3385 3382 3364 3354 3353 3364 3381 3373 3382 3345 3381 3384 3380 3351 3363 3362 3368 3347 3328 3359 3383 3367 3377 3374 3388 3370 3369 3366 3373 3369 3347 3370 3364 3401 3398 3370 3365 3362 3361 3362 3359 3361

Tree=0
num_leaves=31
num_cat=0
split_feature=8 3 7 6 5 5 9 2 9 2 8 8 3 8 4 7 3 9 0 1 1 4 7 0 9 8 8 9 8 5
split_gain=90.1684 54.3169 84.5244 62.2901 76.5016 50.761 60.8127 50.3574 50.2479 49.1393 45.8085 44.4185 40.059 38.9445 44.2549 38.327 38.1188 35.0614 33.9097 39.5685 39.3829 41.2285 37.5739 35.6556 34.0551 33.5539 33.2124 40.5744 33.1525 40.1113
threshold=1.5000000000000002 37.422469293460942 29487.600669000003 31396.886930000004 34.573088283817782 20.84453104969139 3.5000000000000004 51.26423626348511 3.5000000000000004 40.103653686963334 13.500000000000002 3.5000000000000004 44.530281198958832 15.500000000000002 1067.2028303468981 42244.440588000005 47.009939883316896 1.0000000180025095e-35 67873.255000000019 69921.110000000015 52198.245000000003 507.27789410130578 60635.450738000007 64676.070000000007 4.5000000000000009 19.500000000000004 7.5000000000000009 1.5000000000000002 13.500000000000002 23.417310921911184
decision_type=2 2 2 2 2 2 2 2 2 2 2 2 2 2 2 2 2 2 2 2 2 2 2 2 2 2 2 2 2 2
left_child=-1 2 9 4 5 8 7 17 10 -2 -3 -6 25 -9 -15 -10 -14 -7 20 -20 24 23 -21 -22 -18 -5 -23 -28 -8 -30
right_child=1 3 -4 12 11 6 28 13 15 -11 -12 -13 16 14 -16 -17 18 -19 19 22 21 26 -24 -25 -26 -27 27 -29 29 -31
leaf_value=0.053223628369408929 0.037565989223975554 -0.033708282512699202 -0.0095303413234259417 -0.028539853285475647 0.041212951897291676 -0.090497711747545909 -0.0047475276965624827 0.017454658178447748 0.010662678213051165 0.13424470068209401 -0.12317018527478113 -0.11076947332091489 0.076661261906816727 0.17935607077616411 0.047119510506047325 -0.14855357694147295 0.0025514462048374657 0.023580451674988678 0.068372573182386778 -0.017159634767652965 -0.035074707255873271 0.0072520111542376878 0.097203543207743492 0.075305246277165575 0.10031121622157377 -0.18057366491926763 0.055572600781439246 -0.10674046496749454 -0.0076917262817498078 -0.11752112514106743
leaf_weight=290.21124866604805 196.7858615219593 119.29879829287529 389.44982036948204 79.482725292444229 22.170216709375381 50.412193775177002 178.46936771273613 139.6216658949852 153.94979304075241 71.739632964134216 110.02086746692657 144.99619230628014 81.059491038322449 40.926476418972015 66.317086666822433 16.765770614147186 206.10516571998596 57.867710292339325 149.77063229680061 178.31939312815666 67.988418638706207 50.773832023143768 34.245767623186111 51.381672710180283 43.082270920276642 17.760184347629547 17.549628436565399 125.78372812271118 58.307476192712784 77.386958241462708
leaf_count=1031 725 511 1589 337 81 240 721 538 602 206 554 715 272 102 239 88 820 220 513 739 292 200 109 173 136 98 62 616 237 386
internal_value=-2.77575e-08 -0.00515253 0.020231 -0.0122906 -0.0277029 -0.0178684 -0.00102453 0.0273259 -0.0460503 0.0633948 -0.0766295 -0.090613 0.0049825 0.0522645 0.0975839 -0.00497376 0.0109066 -0.0295313 0.00514436 0.0290038 -0.0102203 -0.0338082 0.00126509 0.0124372 0.0194532 -0.0563069 -0.0622477 -0.086867 -0.0330731 -0.0703278
internal_weight=3288 2997.79 657.975 2339.81 1236.51 1069.34 669.309 355.145 400.035 268.525 229.32 167.166 1103.3 246.865 107.244 170.716 1006.06 108.28 925.001 362.336 562.665 313.477 212.565 119.37 249.187 97.2429 194.107 143.333 314.164 135.694
internal_count=13152 12121 2520 9601 5234 4438 2683 1339 1755 931 1065 796 4367 879 341 690 3932 460 3660 1361 2299 1343 848 465 956 435 878 678 1344 623
is_linear=0
shrinkage=1


Tree=1
num_leaves=31
num_cat=0
split_feature=8 6 3 6 7 3 8 5 4 6 5 0 0 1 8 6 7 7 6 6 6 6 10 2 2 3 7 0 1 6
split_gain=74.2612 45.6477 72.5109 78.4787 58.524 52.8001 49.204 37.4359 48.1238 34.8821 34.4163 28.1107 43.6128 29.7302 29.3635 27.8557 27.0679 33.5984 31.9327 26.1921 51.227 65.5954 25.405 23.6973 23.7048 23.697 23.4086 22.8164 42.1156 51.2042
threshold=2.5000000000000004 31396.886930000004 21.55287091436097 28714.407910000005 29487.600669000003 17.18413513413886 5.5000000000000009 39.054172047169409 1713.2137021061355 35131.185560000005 29.866032294861565 64957.760000000009 63842.005000000012 59127.995000000003 11.500000000000002 12081.902080000002 41863.419109000009 26581.551274000005 30997.299350000005 33310.641380000008 35270.246190000013 35579.635955000005 8.5000000000000018 51.621343326393422 62.699896221560465 63.501045540829146 30932.640064000003 64676.070000000007 65267.920000000006 47660.877170000007
decision_type=2 2 2 2 2 2 2 2 2 2 2 2 2 2 2 2 2 2 2 2 2 2 2 2 2 2 2 2 2 2
left_child=9 2 -2 4 7 -3 -6 8 10 -1 11 12 13 22 -14 -8 17 -5 -19 -7 25 -22 -4 -13 -25 -21 -17 28 29 -23
right_child=1 5 3 16 6 19 15 -9 -10 -11 -12 23 14 -15 -16 26 -18 18 -20 20 21 27 -24 24 -26 -27 -28 -29 -30 -31
leaf_value=0.063081721651081432 0.13412592737330617 -0.14609188500581022 -0.0031491529514009048 -0.12581843250303762 0.029892684417148464 0.049818534698623858 0.034179230703493733 -0.10020794603017008 0.11831674372736566 0.0031819746575017811 0.064972183635986433 -0.067151301377743652 -0.012176107770344962 -0.026029891366592357 0.13142122070411436 -0.12602877723297198 -0.15112496685667512 -0.002561416474459116 -0.11120388161725532 -0.098243240971566906 0.14374907185540906 -0.039900982624449001 0.089322499936080491 0.037630208090667638 -0.039132539892761248 0.10508362904739708 -0.053145141567094413 0.020789759117177769 -0.098562976781977174 0.024521564971819943
leaf_weight=250.60492877662182 30.797785848379135 22.025398075580597 68.532247766852379 54.175783038139343 81.389883682131767 147.1739422082901 31.126071155071259 32.409408211708069 38.607328623533249 158.83946412801743 81.591912835836411 100.89495803415775 20.636447966098785 197.20208016037941 45.943168818950653 52.465343326330185 38.632858827710152 97.799287155270576 37.400452315807343 61.505476802587509 35.608407780528069 198.57414020597935 52.446453884243965 71.568523749709129 91.867230176925659 6.3210437297821036 275.2979573905468 530.15684294700623 47.129176586866379 325.7938436716795
leaf_count=862 88 115 277 278 306 525 116 160 115 626 280 462 84 836 131 268 207 397 185 299 97 865 168 262 399 20 1236 2023 229 1236
internal_value=-5.83541e-07 -0.00567496 -0.0177327 -0.0209143 -0.0110142 0.0074926 -0.0403064 0.00507253 0.00950789 0.0398443 0.00375872 -0.00393592 0.013313 -0.00208787 0.086913 -0.0562263 -0.0748406 -0.0592785 -0.0326153 0.00999415 0.00513052 0.0101656 0.036939 -0.0290435 -0.00551813 -0.0792943 -0.0648117 0.00584785 -0.0080132 0.00012524
internal_weight=3284.52 2875.07 1500.79 1469.99 1241.98 1374.29 440.279 801.7 769.29 409.444 730.683 649.091 384.76 318.181 66.5796 358.889 228.008 189.376 135.2 1352.26 1205.09 1137.26 120.979 264.331 163.436 67.8265 327.763 1101.65 571.497 524.368
internal_count=13152 11664 6255 6167 5100 5409 1926 3174 3014 1488 2899 2619 1496 1281 215 1620 1067 860 582 5294 4769 4450 445 1123 661 319 1504 4353 2330 2101
is_linear=0
shrinkage=0.1


Tree=2
num_leaves=31
num_cat=0
split_feature=8 3 7 6 5 2 5 9 9 8 2 8 8 7 8 4 2 6 4 4 2 8 5 0 7 6 8 8 4 7
split_gain=61.5134 39.1986 58.5098 40.814 53.6071 35.59 34.3898 42.6195 38.0275 36.6543 36.5471 31.6455 31.3266 30.9643 30.8577 37.9766 31.1501 28.1127 27.0487 26.9662 37.2305 26.0918 31.0621 25.9919 25.99 31.4735 36.017 25.822 24.8406 27.2486
threshold=1.5000000000000002 37.422469293460942 29487.600669000003 31396.886930000004 34.573088283817782 40.103653686963334 20.84453104969139 3.5000000000000004 3.5000000000000004 13.500000000000002 51.26423626348511 3.5000000000000004 5.5000000000000009 42244.440588000005 15.500000000000002 1067.2028303468981 63.13924863247037 33310.641380000008 1441.3716863724078 -1376.2506502704016 42.782086000112081 13.500000000000002 23.417310921911184 65828.97500000002 39172.97103600001 26595.793065000002 8.5000000000000018 10.500000000000002 -1640.4329731606629 23368.240100999999
decision_type=2 2 2 2 2 2 2 2 2 2 2 2 2 2 2 2 2 2 2 2 2 2 2 2 2 2 2 2 2 2
left_child=28 2 5 4 6 -2 8 10 9 -3 19 -6 -7 -10 24 -16 -17 -5 -18 -8 -21 -9 23 -23 25 27 -27 -12 -1 -30
right_child=1 3 -4 17 11 12 7 21 13 -11 14 -13 -14 -15 15 16 18 -19 -20 20 -22 22 -24 -25 -26 26 -28 -29 29 -31
leaf_value=0.13911253259340953 0.031433643562756533 -0.026184634731843251 -0.0074172856482703003 0.04795425100626758 0.035566981361673973 -0.049736425299314296 0.1293412156492672 -0.0024783319161702498 0.011881269768615097 -0.10642434988737515 0.013437315613477836 -0.092901196759947624 0.14109795016545337 -0.13177872564471765 0.1611092293245158 -0.027242233686592857 -0.036680941983363462 -0.0021112186038693371 0.16877714072615077 0.03270586455060645 -0.092856830564094162 0.045971671529517831 -0.10248555750775823 -0.092091178437708157 -0.14575598789087515 0.046940971529631351 -0.15927182869398201 0.12010995884420342 -0.052431634391845866 0.046775868090256349
leaf_weight=25.085376843810081 196.31574989855289 119.05069445073605 389.0491910725832 126.74592983722687 22.128714337944984 10.018654391169546 10.189573511481283 178.30850271880627 153.86017027497292 109.10566817224026 59.209801718592644 143.6195198148489 60.834061548113823 16.62449836730957 40.481283560395241 34.671398222446442 8.96269738674164 974.39492228627205 22.477311611175537 39.900529190897942 57.854819446802139 36.461430177092552 76.852291345596313 21.781955853104591 9.5613744258880597 16.678908124566078 17.208798512816429 36.794167011976242 31.418706089258194 233.01583088934422
leaf_count=69 725 511 1589 449 81 43 29 721 602 554 228 715 163 88 102 144 38 3918 57 149 282 132 386 105 50 60 92 108 137 825
internal_value=-1.58065e-06 -0.00426445 0.0173273 -0.0103379 -0.0228436 0.0533603 -0.0146177 -0.000736488 -0.0378574 -0.0645557 0.0230412 -0.0757497 0.114114 -0.00212747 0.0443237 0.0848302 0.0381231 0.00365153 0.110207 -0.0254695 -0.0416063 -0.0275934 -0.060742 -0.0056613 0.0133621 0.0250748 -0.0577777 0.0543203 0.0440104 0.0349886
internal_weight=3278.66 2989.14 656.218 2332.92 1231.78 267.168 1066.04 667.395 398.641 228.156 353.991 165.748 70.8527 170.485 246.046 106.593 66.1114 1101.14 31.44 107.945 97.7553 313.404 135.096 58.2434 139.453 129.892 33.8877 96.004 289.52 264.435
internal_count=13152 12121 2520 9601 5234 931 4438 2683 1755 1065 1339 796 206 690 879 341 239 4367 95 460 431 1344 623 237 538 488 152 336 1031 962
is_linear=0
shrinkage=0.1


Tree=3
num_leaves=31
num_cat=0
split_feature=8 2 3 7 6 3 10 6 5 8 3 6 5 6 2 3 6 6 5 4 2 10 0 3 4 3 7 7 2 3
split_gain=52.4575 35.1439 45.6324 57.2146 52.4755 45.9698 39.7729 37.6401 32.8626 32.787 35.3839 30.9576 58.0295 41.1885 37.7608 38.2873 40.2454 36.3755 37.8947 34.2363 32.7387 31.3708 34.5637 53.2249 47.0758 44.1162 26.0951 25.6954 25.4684 24.6166
threshold=4.5000000000000009 12.912138319386104 37.422469293460942 27834.962085000003 53433.219085000012 23.785094620493499 6.5000000000000009 28123.033055000004 12.564028413161253 9.5000000000000018 36.146508539221621 31506.073330000003 34.573088283817782 33310.641380000008 60.740858837510814 57.074193679398199 21830.558200000003 35270.246190000013 14.5502171402192 -1422.0477341974581 42.782086000112081 7.5000000000000009 69483.000000000015 82.68801897677784 684.97104468621194 40.103653686963334 79139.893986900002 30932.640064000003 47.615482900734172 57.246127226312346
decision_type=2 2 2 2 2 2 2 2 2 2 2 2 2 2 2 2 2 2 2 2 2 2 2 2 2 2 2 2 2 2
left_child=8 -2 3 7 5 6 -5 -3 -1 -7 -11 12 14 -13 19 -16 -17 29 -19 -4 -21 22 24 -24 25 -20 -26 -18 -22 -15
right_child=1 2 11 4 -6 9 -8 -9 -10 10 -12 13 -14 17 15 16 27 18 21 20 28 -23 23 -25 26 -27 -28 -29 -30 -31
leaf_value=0.16964651833070343 -0.16448549787215247 0.033508511450977982 0.10901857284672507 -0.053445209332666777 0.064268561614659075 0.015111947524035108 0.12729976905233084 0.12714680964248126 0.021260385053574287 -0.086260935041374831 0.07116298236903669 0.071006137002986677 -0.085655756721546142 -0.18275518492030118 0.081243635618211185 0.031827219099126551 -0.078969649631836336 -0.17166169698858361 -0.11337987485712138 0.016744868836404785 -0.090416068240254333 -0.037185389165755832 0.083676630162317495 -0.16378622934683473 -0.028452663080362713 0.058275084697457173 0.085467742174069286 0.0047031662760833532 -0.03399900252119667 -0.040000181770903462
leaf_weight=15.264148727059363 14.010024383664129 141.06738139688969 16.957983911037445 19.594717189669609 84.534384220838547 62.887265339493752 32.150165274739265 61.706184282898903 671.77295407652855 141.14959962666035 15.88468863070011 76.536214008927345 134.41548617184162 17.078456774353981 62.459695070981979 149.1300215870142 82.413473576307297 12.647862479090689 16.470279216766357 100.31315185129642 101.96243485808372 156.41276678442955 103.60842695832253 9.4873733967542631 304.45927453041077 164.6093742698431 21.529289662837982 66.169533178210258 371.76852290332317 41.267575845122337
leaf_count=39 77 513 50 87 292 246 93 172 2538 674 54 253 678 98 206 556 396 69 84 389 506 678 335 51 1296 573 69 266 1631 183
internal_value=-9.24328e-07 -0.00653378 -0.00567229 0.0196004 -0.00453839 -0.025949 0.0588554 0.0620037 0.0245571 -0.0459025 -0.0703368 -0.0127016 -0.0241527 0.000750501 -0.0154613 0.0100615 -0.00487235 -0.00559363 3.91389e-05 -0.0310157 -0.0351525 0.00283558 0.0129293 0.0629175 0.00178006 0.042662 -0.020929 -0.041707 -0.0461418 -0.081786
internal_weight=3269.72 2582.68 2568.67 558.974 356.201 271.666 51.7449 202.774 687.037 219.922 157.034 2009.7 1085.59 924.107 951.175 360.173 297.713 847.571 789.225 591.002 574.044 776.577 620.164 113.096 507.068 181.08 325.989 148.583 473.731 58.346
internal_count=13152 10575 10498 2131 1446 1154 180 685 2577 974 728 8367 4678 3689 4000 1424 1218 3436 3155 2576 2526 3086 2408 386 2022 657 1365 662 2137 281
is_linear=0
shrinkage=0.1


Tree=4
num_leaves=31
num_cat=0
split_feature=8 6 3 7 6 7 8 2 6 8 3 8 3 7 6 7 4 7 2 8 4 5 2 2 8 4 4 4 6 3
split_gain=44.4079 29.3667 29.2678 35.304 30.4605 38.7327 30.4822 26.8092 25.4391 24.8752 24.4814 26.6168 23.687 22.5743 21.6975 24.8229 21.2032 26.4145 21.1751 19.8162 22.9843 19.5862 20.0238 25.5507 30.5212 28.4819 18.9469 18.8151 18.001 35.0496
threshold=1.5000000000000002 125730.12557000002 37.422469293460942 29487.600669000003 31396.886930000004 50476.137583000003 9.5000000000000018 40.103653686963334 31579.631050000004 5.5000000000000009 44.530281198958832 19.500000000000004 47.009939883316896 23645.709247000003 28714.407910000005 26581.551274000005 -1561.3665377054492 31660.867728000005 33.833492423632819 10.500000000000002 -457.39255971546294 33.296793405893716 51.26423626348511 42.782086000112081 13.500000000000002 -1376.2506502704016 130.06914451078049 -457.39255971546294 53433.219085000012 23.785094620493499
decision_type=2 2 2 2 2 2 2 2 2 2 2 2 2 2 2 2 2 2 2 2 2 2 2 2 2 2 2 2 2 2
left_child=8 2 3 7 5 14 -7 13 16 -9 11 26 19 -2 21 -16 -1 -18 -14 27 -21 22 23 -4 -25 -26 -6 -12 29 -5
right_child=1 -3 4 28 10 6 -8 9 -10 -11 12 -13 18 -15 15 -17 17 -19 -20 20 -22 -23 -24 24 25 -27 -28 -29 -30 -31
leaf_value=0.15393779646319777 -0.020586723873644436 -0.12635848282671863 0.01487610375189128 0.064928482367322501 0.015157445864644009 -0.0066855089328393263 -0.13914762780845016 -0.047475858276452551 0.0035556574899691658 0.12291455010319552 -0.14870232306886808 -0.15612545229505551 -0.10214215600328656 0.050448782343493585 -0.10278397250086685 -0.022498689673380895 0.015714317609488573 0.10531975009498701 0.006362341569238367 0.15514956693509471 0.021471998371743208 -0.053985842113064543 0.0066217827673470389 -0.010228603873700034 0.15600656345507524 -0.10620829822959227 -0.088685871161691979 0.040364583374425132 0.037444594930295033 -0.029878128378212482
leaf_weight=22.36935980618 69.338280633091927 19.372232958674431 99.699362501502037 46.207484304904938 52.802736356854439 27.921892046928406 45.981434196233749 10.039093360304831 125.09150233864784 58.466441750526428 7.0279894322156933 17.361162722110748 18.356021344661713 126.08760321140289 53.855686262249947 135.1594462543726 88.23174612224102 52.457775503396988 891.69542026519775 29.632262632250786 22.727019876241684 85.470318362116814 591.27733084559441 97.859513342380524 4.3708888739347449 79.248112857341766 26.33279749751091 20.964609235525131 83.699479103088379 249.81572997570038
leaf_count=57 288 103 387 157 208 120 259 43 485 163 36 98 92 437 283 586 332 157 3510 76 85 408 2356 413 11 411 129 75 305 1082
internal_value=-2.51866e-06 -0.00363805 -0.00283255 0.0160234 -0.00809167 -0.0189319 -0.0891013 0.0441148 0.0374791 0.0979448 0.00408447 -0.0439964 0.00876908 0.025245 -0.0144105 -0.0453742 0.0635036 0.0491248 0.00417377 0.0608147 0.0971256 -0.00830088 -0.00382534 -0.0257942 -0.0481373 -0.0925019 -0.019397 -0.00710369 -0.0035019 -0.0150794
internal_weight=3258.92 2970.77 2951.4 643.654 2307.74 1220.84 73.9033 263.931 288.15 68.5055 1086.9 96.4967 990.403 195.426 1146.94 189.015 163.059 140.69 910.051 80.3519 52.3593 957.926 872.455 281.178 181.479 83.619 79.1355 27.9926 379.723 296.023
internal_count=13152 12121 12018 2475 9543 5234 379 931 1031 206 4309 435 3874 725 4855 869 546 489 3602 272 161 3986 3578 1222 835 422 337 111 1544 1239
is_linear=0
shrinkage=0.1


Tree=5
num_leaves=31
num_cat=0
split_feature=8 5 2 3 7 6 3 10 6 8 3 2 8 9 5 5 0 6 8 4 2 2 1 6 7 8 3 5 8 3
split_gain=38.0098 27.2393 26.8236 30.5486 39.795 37.5411 30.5772 32.4478 28.7898 27.2075 30.8116 26.4557 24.8347 33.7019 20.6898 29.0889 42.5108 37.3437 34.1377 29.1725 32.2547 28.3665 32.2794 29.6709 28.3138 25.9837 30.9125 24.2838 23.478 26.0377
threshold=4.5000000000000009 12.564028413161253 12.912138319386104 37.422469293460942 27834.962085000003 53433.219085000012 23.785094620493499 6.5000000000000009 28123.033055000004 8.5000000000000018 36.146508539221621 44.104554368809374 22.500000000000004 5.5000000000000009 55.918756559011619 35.574100228936139 63988.965000000004 73882.706921000019 7.5000000000000009 -1422.0477341974581 57.246127226312346 42.782086000112081 69156.310000000012 12597.803070000002 24917.714060000002 14.500000000000002 68.518888729608946 34.617029179818083 7.5000000000000009 47.009939883316896
decision_type=2 2 2 2 2 2 2 2 2 2 2 2 2 2 2 2 2 2 2 2 2 2 2 2 2 2 2 2 2 2
left_child=1 -1 -2 4 8 6 7 -6 -4 11 -11 -8 14 -14 15 19 18 25 -17 -5 21 24 23 -23 -21 26 -18 -22 -25 -30
right_child=2 -3 3 12 5 -7 9 -9 -10 10 -12 -13 13 -15 -16 16 17 -19 -20 20 27 22 -24 28 -26 -27 -28 -29 29 -31
leaf_value=0.15371030281264805 -0.14558605952810302 0.017931014086257847 0.027031487649415598 0.097878506887830952 -0.0539644003471682 0.054134741030975292 0.063619319565068763 0.1097144324688637 0.11031789333101372 -0.070999414744744735 0.071134710749553132 -0.13289701412037605 0.067536559211799393 -0.11238842704382386 0.088962349462400878 0.018512902553425394 0.052108222761348001 0.060696055924706331 -0.1131123341233241 -0.068219668867435329 0.0012402312514747894 0.031390807184372135 0.010207094877777684 -0.0022361407753743192 0.021208535694558783 -0.076721654991730961 -0.056388773382338102 0.12359760212313271 -0.025453509780512334 -0.094133664251391302
leaf_weight=15.108426406979559 13.614493653178213 669.62534348666668 139.89243079721928 25.600546360015869 19.599689289927483 84.264849588274956 38.689923822879791 31.701197043061256 59.012164518237114 155.06425388157368 16.915406286716461 8.3244291394948942 73.535471647977829 12.127380102872847 19.706197962164879 24.580130755901337 52.443327039480209 51.379927635192871 99.327782198786736 44.095785066485405 794.59426711499691 36.889251485466957 101.21859912574291 52.935682743787766 179.60810053348541 84.45013815164566 52.597829133272171 16.558230131864548 76.557921782135963 197.86681158840656
leaf_count=39 77 2538 513 77 87 292 136 93 172 738 57 43 256 63 62 100 200 176 529 209 3198 143 396 221 689 411 243 48 337 1009
internal_value=-3.27012e-06 0.0209269 -0.00559467 -0.00484712 0.0159407 -0.00414321 -0.0223114 0.0471803 0.0517414 -0.0385904 -0.0570195 0.0288239 -0.0106111 0.0420644 -0.0129731 -0.0140355 -0.0394045 -0.01492 -0.0870013 -0.00797092 -0.00977707 -0.0256842 -0.0397489 -0.0536308 0.00358074 -0.035423 -0.00222007 0.00373794 -0.0632116 -0.0749735
internal_weight=3247.89 684.734 2563.15 2549.54 553.464 354.56 270.295 51.3009 198.905 218.994 171.98 47.0144 1996.07 85.6629 1910.41 1890.7 364.779 240.871 123.908 1525.93 1500.32 689.172 465.468 364.25 223.704 189.491 105.041 811.152 327.36 274.425
internal_count=13152 2577 10575 10498 2131 1446 1154 180 685 974 795 179 8367 319 8048 7986 1659 1030 629 6327 6250 3004 2106 1710 898 854 443 3246 1567 1346
is_linear=0
shrinkage=0.1


Tree=6
num_leaves=31
num_cat=0
split_feature=8 6 6 6 6 3 7 8 5 4 1 6 2 4 7 8 3 4 2 3 3 4 8 7 8 7 2 8 2 4
split_gain=32.1921 21.5114 21.4746 35.1334 21.2264 21.1833 23.0849 34.9051 21.2043 22.073 21.4675 20.9228 22.5998 19.733 22.5237 19.4952 18.4945 18.052 15.9315 20.0928 15.7851 18.418 15.3781 21.8438 27.8841 43.7582 17.2637 22.759 15.286 22.6992
threshold=1.5000000000000002 125730.12557000002 31396.886930000004 28714.407910000005 31579.631050000004 21.55287091436097 29487.600669000003 9.5000000000000018 39.054172047169409 1713.2137021061355 67766.24000000002 12081.902080000002 35.130189230635523 -831.31338400318407 32063.024663000007 21.500000000000004 30.362453589708824 1436.0307847482329 52.947624721351531 62.146707330221389 22.095905951569936 5072.1012841510901 9.5000000000000018 37386.354966000006 18.500000000000004 26882.869601000006 91.435598188296908 16.500000000000004 71.729704770675411 1934.6903742159304
decision_type=2 2 2 2 2 2 2 2 2 2 2 2 2 2 2 2 2 2 2 2 2 2 2 2 2 2 2 2 2 2
left_child=4 2 3 5 13 -2 8 -8 9 10 17 12 -9 -1 -15 -13 -5 -7 -12 -20 -6 -22 28 24 -24 -26 -25 -28 29 -18
right_child=1 -3 -4 16 20 6 7 11 -10 -11 18 15 -14 14 -16 -17 22 -19 19 -21 21 -23 23 26 25 -27 27 -29 -30 -31
leaf_value=0.10715909572524202 0.095934484595648684 -0.11014976289085372 0.0065363845272105653 0.087356974170952353 0.1125210785704228 0.016051315478213923 0.010242471334815694 -0.12780446964844611 -0.075313101761717807 0.080027016900839937 -0.077995749404100673 -0.066841111449705184 0.093103147131933739 -0.0042207180309343255 0.088495360449469471 0.014632841998773117 -0.017631706957219186 -0.05609871146249587 0.057883019084035141 -0.042282343615388109 -0.022652440345462703 0.12127334294783372 -0.078129265613310628 -0.15042555472235963 -0.14185549472073841 0.11272158033530594 0.1116112815362226 -0.1781798256434656 -0.085695272368359998 0.14646660160790753
leaf_weight=51.345949277281761 20.851462036371231 18.657548353075981 1397.0513132363558 10.042007789015768 11.530201971530913 574.37403135001659 180.17122998833656 6.0989308953285244 32.129817441105843 39.907681092619896 48.776238918304443 211.11330623924732 19.242470934987068 66.927118584513664 43.059188008308411 34.114955738186836 46.356567323207855 36.906102165579796 31.081277340650558 56.30579024553299 103.55355221033096 9.7264047265052778 68.430326119065285 42.331244796514511 9.7122447192668933 22.150664821267128 6.436647489666937 4.6809583306312561 22.194714054465294 10.303038612008093
leaf_count=151 63 103 5526 31 34 2226 719 32 168 127 244 1038 62 262 133 143 200 172 106 246 423 28 348 252 58 69 21 27 110 30
internal_value=-7.02598e-06 -0.00311389 -0.00243249 -0.0106022 0.0320171 -0.00404086 -0.00568201 -0.0238594 0.00431611 0.00756558 0.0036967 -0.0465676 0.0399372 0.055973 0.0320772 -0.0555069 -0.045515 0.0116953 -0.0322113 -0.00665616 0.00105123 -0.0102947 -0.0512515 -0.0696663 -0.0421493 0.0351231 -0.1213 -0.0104024 -0.0153483 0.0122081
internal_weight=3235.56 2949.42 2930.76 1533.71 286.142 1291.07 1270.22 450.741 819.481 787.351 747.443 270.57 25.3414 161.332 109.986 245.228 242.638 611.28 136.163 87.3871 124.81 113.28 232.596 153.742 100.293 31.8629 53.4489 11.1176 78.8543 56.6596
internal_count=13152 12121 12018 6492 1031 5346 5283 1994 3289 3121 2994 1275 94 546 395 1181 1146 2398 596 352 485 451 1115 775 475 127 300 48 340 230
is_linear=0
shrinkage=0.1


Tree=7
num_leaves=31
num_cat=0
split_feature=8 2 3 7 6 6 3 2 8 3 6 6 7 6 7 7 4 7 4 5 5 0 8 9 4 4 4 4 8 5
split_gain=26.7056 23.0985 21.4659 27.5147 28.2487 24.8289 20.4333 26.3005 25.8771 21.6975 20.2301 23.2047 19.5786 19.1125 21.6079 31.5357 20.7035 25.4198 20.1227 18.4936 25.8007 18.6646 17.8874 27.0948 17.035 16.924 23.8974 23.6474 16.9395 31.1488
threshold=3.5000000000000004 12.912138319386104 37.422469293460942 27834.962085000003 28123.033055000004 53433.219085000012 23.785094620493499 35.58318365897658 9.5000000000000018 36.146508539221621 9583.1759500000026 7764.5953600000003 79139.893986900002 35131.185560000005 30494.655532000008 29808.070874000005 -1552.0465658679384 21187.245912000002 4677.0490924741325 20.562319499552945 22.378253613595234 66344.005000000019 22.500000000000004 5.5000000000000009 163.90421095701097 -1535.6653692626094 -1422.0477341974581 -1313.2022764204519 13.500000000000002 13.472419186800703
decision_type=2 2 2 2 2 2 2 2 2 2 2 2 2 2 2 2 2 2 2 2 2 2 2 2 2 2 2 2 2 2
left_child=10 -2 3 4 -3 6 7 -5 -8 -10 11 -1 22 16 15 24 -12 -18 -16 -19 21 -21 25 -24 -15 -4 -27 -28 -29 -30
right_child=1 2 12 5 -6 -7 8 -9 9 -11 13 -13 -14 14 18 -17 17 19 -20 20 -22 -23 23 -25 -26 26 27 28 29 -31
leaf_value=0.060430792875191111 -0.13445256477018017 0.018910686728026937 -0.078482599171513318 -0.014787729492089528 0.10011063271866852 0.043859156864329452 0.017747252613861161 0.13252793090322676 -0.066089313039628991 0.057628059194312298 0.1099218399922945 -0.17949135561341073 0.082715394948725082 0.060039935366874346 -0.035380278673000969 0.18108422310370254 -0.085491578051587649 0.07086674773033233 0.06608921150473579 -0.12951256623275839 0.036027862381297682 0.021408761039994326 0.059335149172679125 -0.10323834033995501 -0.070922176836904133 0.086868437744561197 -0.11687593365828214 -0.00053363524803537747 -0.12265648347655758 -0.016269411365189706
leaf_weight=6.5470628142356899 13.536423802375792 144.96186383068562 36.659021317958832 32.907061725854874 60.818733662366867 87.476261273026466 76.337146744132042 19.184027105569839 138.55389541387558 15.791468203067778 36.027134031057358 10.490534424781798 23.410854339599609 25.406673669815063 128.62010712921619 14.26487450301647 18.013997957110405 102.10404868423939 23.045904859900475 18.349055081605911 139.45614981651306 14.807022556662558 71.610150828957558 11.964252486824988 16.307402923703194 25.189875811338425 20.932392671704292 945.36581259965897 28.371292948722839 918.27151624858379
leaf_count=22 80 539 200 134 184 308 297 52 674 54 106 57 74 87 544 34 84 339 77 92 501 55 251 63 74 78 118 3868 153 3953
internal_value=-1.27415e-05 -0.00415485 -0.00349123 0.0135934 0.0429094 -0.00270005 -0.0171032 0.0394655 -0.0298771 -0.0534315 0.0199804 -0.0872961 -0.00821859 0.0233878 -0.000363733 0.0527341 0.0383893 0.0295856 -0.0199618 0.0371316 0.0171765 -0.0621133 -0.00925283 0.0360616 0.00884254 -0.0111706 -0.00989739 -0.0111716 -0.0100021 -0.0194579
internal_weight=3224.78 2671.34 2657.81 576.03 205.781 370.25 282.774 52.0911 230.683 154.345 553.44 17.0376 2081.78 536.402 207.645 55.979 328.757 292.73 151.666 274.716 172.612 33.1561 2058.36 83.5744 41.7141 1974.79 1938.13 1912.94 1892.01 946.643
internal_count=13152 11080 11000 2242 723 1519 1211 186 1025 728 2072 79 8758 1993 816 195 1177 1071 621 987 648 147 8684 314 161 8370 8170 8092 7974 4106
is_linear=0
shrinkage=0.1


Tree=8
num_leaves=31
num_cat=0
split_feature=8 7 6 2 8 3 7 2 0 0 3 8 4 6 5 2 4 6 3 6 1 6 4 7 0 7 0 0 1 1
split_gain=23.5851 16.9976 29.9558 44.6774 28.1028 27.0057 22.3643 25.8198 21.5313 23.3441 20.1055 20.0743 19.0704 31.8672 17.5371 17.0949 22.5502 17.4555 17.1648 16.264 28.5131 16.0909 21.2627 24.5046 25.3894 15.8565 19.874 17.52 21.4142 21.5261
threshold=1.5000000000000002 42237.425876000001 46367.171861500006 33.833492423632819 9.5000000000000018 67.17808090444683 45865.760373000005 93.669251802486471 67995.675000000003 71449.315000000017 37.422469293460942 8.5000000000000018 932.86313822902605 90165.99897500001 20.262863075079554 40.103653686963334 -1803.7738107254443 31147.805355000004 35.935187536268053 55787.928820000008 67830.565000000017 29072.246088000004 -457.39255971546294 40451.561542000003 65108.990000000005 27666.847407000005 69921.110000000015 65419.995000000003 69750.170000000013 69156.310000000012
decision_type=2 2 2 2 2 2 2 2 2 2 2 2 2 2 2 2 2 2 2 2 2 2 2 2 2 2 2 2 2 2
left_child=21 10 4 -4 -3 11 14 -8 -7 -10 15 -5 -13 19 -6 16 -2 18 -18 20 -14 22 -1 24 -24 26 -12 -27 29 -29
right_child=1 2 3 5 6 8 7 -9 9 -11 25 12 13 -15 -16 -17 17 -19 -20 -21 -22 -23 23 -25 -26 27 -28 28 -30 -31
leaf_value=0.10211894314675407 0.091247249110516793 -0.0032692349609973908 -0.076519902279440111 -0.017407328105821362 -0.07701792102316514 -0.04377804818242672 -0.10077243433382432 0.1273543440436227 0.081974852724124039 -0.014491470705336277 -0.0085409007748080152 0.091573192224500236 -0.037945238745443782 0.15444271096322365 0.065416904061797301 0.063183150367517579 -0.025420580493547271 0.033000976684256937 0.048447452733474498 -0.057651776174357475 0.16297322786404575 0.0059234349878554554 -0.12494865630434891 0.10395314983720497 0.027668635509311215 -0.0066460856028916389 -0.065442259883685183 0.023035150889874942 -0.0048913286325041648 0.092370870902874783
leaf_weight=53.234427958726883 32.630791425704956 105.18022882938385 67.926886528730392 50.310995742678642 15.943159222602842 113.21513646841049 114.24358312785625 5.1865900158882132 37.841694936156273 74.418127626180649 762.44280658662319 74.516365438699722 17.234207108616832 14.470305100083349 18.881677508354187 77.332103371620178 184.0098889619112 133.18899103999138 37.944494813680649 33.568783134222031 11.968367993831633 155.07872478663921 15.780366361141203 23.460120916366577 35.249184146523476 483.55712294578552 66.756298869848251 164.25880552828312 172.07240310311317 61.556952759623528
leaf_count=159 105 436 335 205 84 507 627 15 120 306 3219 237 74 37 68 266 787 499 131 152 32 596 78 69 129 2025 325 624 712 193
internal_value=-7.65409e-06 -0.00266894 -0.0155981 -0.00118359 -0.043127 0.0107856 -0.0703043 -0.0908654 -0.0130068 0.0180264 0.001817 0.0373339 0.0554818 0.0206637 0.000208814 0.0202526 0.0116911 0.00438145 -0.0127924 -0.0101755 0.0443991 0.027571 0.0538548 0.0193626 -0.0195267 -0.00319544 -0.0131219 0.00614261 0.0216848 0.0419359
internal_weight=3213.46 2930.66 754.906 495.471 259.435 427.544 154.255 119.43 225.475 112.26 2175.75 202.069 151.758 77.2417 34.8248 465.106 387.774 355.143 221.954 62.7714 29.2026 282.803 127.724 74.4897 51.0296 1710.64 829.199 881.445 397.888 225.816
internal_count=13152 12121 3235 2005 1230 1670 794 642 933 426 8886 737 532 295 152 1788 1522 1417 918 258 106 1031 435 276 207 7098 3544 3554 1529 817
is_linear=0
shrinkage=0.1


Tree=9
num_leaves=31
num_cat=0
split_feature=8 6 6 6 7 4 7 8 5 0 7 8 0 8 8 6 7 2 5 8 1 4 5 6 3 2 5 8 8 2
split_gain=19.2856 15.0036 14.4451 27.4467 14.7026 19.8458 17.8022 17.6459 36.9844 17.5026 22.8832 17.1193 15.8512 31.7553 25.8392 32.2349 32.6601 24.5805 24.2866 16.2429 25.6824 22.7054 20.3861 15.8349 15.7555 15.6284 14.5077 14.1083 15.2802 15.8852
threshold=1.5000000000000002 125730.12557000002 31396.886930000004 28714.407910000005 29158.997167000005 -2073.2500085698262 28317.408249000004 16.500000000000004 30.433129286076923 65715.895000000004 25025.693498000004 5.5000000000000009 61631.740000000005 7.5000000000000009 11.500000000000002 22763.594700000005 27145.220129000005 35.58318365897658 20.937771863005036 16.500000000000004 59127.995000000003 -995.97299526741688 24.52296979996013 28065.276155000003 73.588805368097539 47.615482900734172 16.437560981625492 7.5000000000000009 14.500000000000002 51.621343326393422
decision_type=2 2 2 2 2 2 2 2 2 2 2 2 2 2 2 2 2 2 2 2 2 2 2 2 2 2 2 2 2 2
left_child=-1 2 3 4 6 -6 9 -8 -9 12 25 23 14 -14 17 16 -16 -2 -15 22 -21 -22 -17 24 -7 -11 -13 -27 -29 -30
right_child=1 -3 -4 -5 5 11 7 8 -10 10 -12 26 13 18 15 19 -18 -19 -20 20 21 -23 -24 -25 -26 27 -28 28 29 -31
leaf_value=0.025025794202984848 0.11016131320244925 -0.094597908569171898 0.0055131527146156344 -0.03989517438185592 0.060350769109769768 -0.025142454225394587 0.09504791870739715 0.14848100008643064 -0.12038979422132733 -0.047505554685232612 -0.06857679970027801 0.089015038643610156 -0.034565617037037651 0.0048408116840604164 -0.11269198427778888 0.017080430457253905 0.112375904447644 0.0051588539309845643 0.08506257112679963 0.11173513409430175 0.12528552358111877 -0.10056396138181352 -0.14130601658470593 0.11929966127501222 0.073943876404107281 -0.047950783833478332 -0.03594635340360515 0.079200758222112769 -0.16892726679661807 0.016701273250609952
leaf_weight=280.83531412482262 29.016757845878601 17.548233389854431 1388.9423661381006 236.5712965875864 31.249190300703049 64.95840659737587 41.128197684884071 8.3325527459383011 13.253214314579964 52.702096328139305 70.468757167458534 9.5529576539993268 52.87748971581459 60.621273070573807 55.447024032473564 21.06025293469429 7.2958627939224234 96.228332236409187 99.975423440337181 26.620379403233528 6.2718100100755718 15.335507422685621 13.232201620936392 12.61158926784992 21.312517747282982 26.630835488438606 338.39115020632744 43.092461153864861 5.0237157791852942 55.982276454567909
leaf_count=1031 86 103 5526 1146 111 272 127 22 66 250 345 30 224 244 294 82 21 392 319 82 19 77 74 37 71 117 1596 144 30 214
internal_value=-4.27871e-06 -0.00241015 -0.00185312 -0.00860539 -0.00281636 -0.0166927 0.0054699 0.0566193 -0.0166001 0.00112262 -0.0201412 -0.0220808 0.0122777 0.0326498 -0.00379906 -0.0324971 -0.0865207 0.0294858 0.0547808 0.00857885 0.0459902 -0.0350082 -0.0440351 0.0146363 -0.000663996 -0.00153367 -0.0325155 0.0169994 0.0336152 0.00141515
internal_weight=3202.57 2921.73 2904.19 1515.24 1278.67 478.076 800.596 62.714 21.5858 737.882 253.9 446.827 483.982 213.474 270.508 145.263 62.7429 125.245 160.597 82.5202 48.2277 21.6073 34.2925 98.8825 86.2709 183.431 347.944 130.729 104.098 61.006
internal_count=13152 12121 12018 6492 5346 2117 3229 215 88 3014 1100 2006 1914 787 1127 649 315 478 563 334 178 96 156 380 343 755 1626 505 388 244
is_linear=0
shrinkage=0.1


Tree=10
num_leaves=31
num_cat=0
split_feature=8 5 5 5 2 8 6 5 6 6 6 8 7 3 3 6 10 7 1 0 6 5 1 2 5 7 1 7 7 5
split_gain=16.5676 22.0121 20.834 22.8291 17.6345 17.2999 16.1233 30.8896 20.9982 27.5815 35.0151 20.7079 24.7424 20.5192 20.4858 22.6091 18.5068 28.7155 25.944 20.8468 43.0468 41.3947 22.3703 18.8484 17.0554 19.6913 16.6948 16.5908 24.046 20.2021
threshold=4.5000000000000009 12.564028413161253 12.869009179660326 12.234312210112313 12.912138319386104 13.500000000000002 31506.073330000003 48.762942299951881 33310.641380000008 35270.246190000013 35579.635955000005 9.5000000000000018 29108.670313000006 57.246127226312346 21.55287091436097 30816.643135000002 7.5000000000000009 33888.746462000003 69519.925000000017 67575.000000000015 71576.424468000012 28.238871742099821 69921.110000000015 81.450644388691828 18.160298250172279 46852.890283500012 44648.255000000012 29487.600669000003 28317.408249000004 16.437560981625492
decision_type=2 2 2 2 2 2 2 2 2 2 2 2 2 2 2 2 2 2 2 2 2 2 2 2 2 2 2 2 2 2
left_child=1 -1 3 5 -4 -2 7 14 11 13 -11 -8 -13 -10 -6 27 17 18 23 21 22 24 -21 -12 25 -19 -26 28 -16 -29
right_child=2 -3 4 -5 6 -7 8 -9 9 10 16 12 -14 -15 15 -17 -18 19 -20 20 -22 -23 -24 -25 26 -27 -28 29 -30 -31
leaf_value=0.13567899596101304 0.078025722486447902 0.011225856906429497 -0.12246039855734095 -0.16614454475221124 0.085205707743324158 -0.087437525149494641 -0.033940109750707596 -0.12097334934100035 -0.16303217102929979 0.11247805021625588 0.06482480605946081 0.1486383145483707 0.03083725678656947 -0.024347117093931978 -0.0032621547466239252 -0.060731855884045276 -0.025732777044022066 0.0065561501062459185 -0.031723353732786515 0.019117339701214969 0.096957306213448738 -0.05563298820790178 -0.087129469001880691 -0.11500090648651938 0.064304929841167577 -0.099178243726713702 0.0043592801924269078 0.086411374970057395 0.053070217123494273 -0.02632849385266783
leaf_weight=14.524152308702467 11.261570453643801 660.89396914839745 12.204421073198317 16.302834764122963 23.408948436379433 14.397129133343695 22.189506679773331 24.44085781276226 16.287995129823685 29.970459386706352 162.6228334903717 28.89714127779007 46.553026884794235 30.921835675835609 672.37880322337151 79.754420429468155 185.20609720051289 49.11915722489357 39.426488235592842 68.838397994637489 58.943204909563065 149.94831475615501 27.828218579292297 6.0453751087188712 68.549259230494499 27.460125312209129 144.16450253129005 16.557120844721794 85.399461016058922 397.02754513919353
leaf_count=39 38 2538 77 99 74 71 92 154 98 90 545 75 170 135 2834 398 799 195 170 261 178 704 133 30 234 144 574 53 302 1848
internal_value=-4.11767e-06 0.0139021 -0.00373707 -0.0736099 -0.00255203 -0.0148159 -0.00195761 -0.00961487 0.00659507 0.0025271 0.00599194 0.0509801 0.0759546 -0.0721952 -0.00747941 -0.00921359 0.00276223 0.00933484 0.0413083 -0.0018503 0.0296018 -0.0129928 -0.0114688 0.0583795 0.00910874 -0.0313585 0.0236774 -0.00570587 0.00308634 -0.0218152
internal_weight=3191.52 675.418 2516.11 41.9615 2474.14 25.6587 2461.94 1298.97 1162.97 1065.33 1018.12 97.6397 75.4502 47.2098 1274.53 1251.12 988.152 802.946 208.095 594.851 155.61 439.241 96.6666 168.668 289.293 76.5793 212.714 1171.36 757.778 413.585
internal_count=13152 2577 10575 208 10367 109 10290 5663 4627 4290 4057 337 245 233 5509 5435 3967 3168 745 2423 572 1851 394 575 1147 339 808 5037 3136 1901
is_linear=0
shrinkage=0.1


Tree=11
num_leaves=31
num_cat=0
split_feature=8 5 5 4 7 5 5 0 6 2 6 0 4 5 0 0 3 7 8 10 5 1 5 5 4 4 0 9 9 6
split_gain=14.7024 38.5906 28.1404 22.6353 24.6566 18.6056 21.9392 32.5995 41.7003 27.3116 18.4239 17.292 56.7384 23.9866 30.6814 23.2769 22.7247 30.6343 22.3639 23.4664 22.6031 22.0266 26.9472 32.9442 19.2385 17.2639 18.4325 16.6756 21.9442 22.5564
threshold=8.5000000000000018 13.472419186800703 13.472419186800703 -1640.4329731606629 19678.831094000005 55.918756559011619 40.062571370747889 67575.000000000015 73882.706921000019 57.662116339048929 19787.560570000005 61631.740000000005 -292.30847357851229 20.262863075079554 69997.115000000005 61235.200000000004 47.615482900734172 27272.954321000001 14.500000000000002 6.5000000000000009 21.451965109216612 63807.325000000004 21.969535793930024 21.2904248700377 2509.9951530083567 -1803.7738107254443 57039.670000000006 4.5000000000000009 5.5000000000000009 12081.902080000002
decision_type=2 2 2 2 2 2 2 2 2 2 2 2 2 2 2 2 2 2 2 2 2 2 2 2 2 2 2 2 2 2
left_child=2 -2 -1 -4 -5 6 11 -8 9 -9 -11 15 18 14 16 21 17 -14 19 -13 -20 22 23 27 25 26 -24 -3 -29 -30
right_child=1 5 3 4 -6 -7 7 8 -10 10 -12 12 13 -15 -16 -17 -18 -19 20 -21 -22 -23 24 -25 -26 -27 -28 28 29 -31
leaf_value=0.10142650652975548 -0.097644182303635335 -0.016892080049873824 0.0614072720203113 -0.11814085197259701 0.0046073474312381176 0.10824722396088703 -0.08076715622220676 0.031836697980677682 0.080065808654220361 0.049645727864404306 -0.097754160499892384 -0.013369022844721513 0.035978113455176389 0.0075633037478645389 0.091672792798206185 -0.10087822762344656 -0.070506364560263129 -0.089461393286149243 0.13622372519625492 0.11788738868589246 0.05011316428031494 0.12337047148318932 -0.02955480644935329 0.088612625804490572 0.10296451239562512 -0.042441784838761619 0.10893060633785567 0.082119328252280271 0.079462267623683705 -0.063852671687740142
leaf_weight=31.975696057081223 44.160683929920197 232.60015788674355 69.970412209630013 16.623228400945663 1051.5028540343046 14.888178616762159 88.008428663015366 36.388071790337563 42.220071375370026 9.9633012413978559 56.951727390289307 70.751164242625237 60.858931496739388 488.89692752063274 18.56126880645752 27.928848803043365 121.9343181848526 28.626378193497658 43.478937849402428 16.86839796602726 101.98099471628666 12.570123434066771 23.203076809644699 45.17477560043335 10.538483381271361 299.36140030622482 16.407464295625687 46.288071915507317 16.81334263086319 31.665067106485367
leaf_count=100 238 996 247 83 4163 44 489 137 134 44 306 296 236 2002 57 156 601 150 118 48 369 35 104 145 33 1406 49 150 53 163
internal_value=-3.49865e-06 -0.00519745 0.00890597 0.00630654 0.00269702 -0.00311765 -0.00396877 -0.0327235 -0.00366796 -0.03789 -0.0758071 -5.21167e-05 0.0089362 -0.00496506 -0.0315981 -0.011273 -0.0424204 -0.00415002 0.0518113 0.0119003 0.0758522 -0.00786639 -0.0101511 0.00856073 -0.0300959 -0.0342327 0.0278086 -0.00248598 0.0328731 -0.014148
internal_weight=3177.16 2007.09 1170.07 1138.1 1068.13 1962.93 1948.04 233.532 145.523 103.303 66.915 1714.51 951.957 718.878 229.981 762.551 211.42 89.4853 233.079 87.6196 145.46 734.622 722.052 372.541 349.51 338.972 39.6105 327.367 94.7665 48.4784
internal_count=13152 8559 4593 4493 4246 8321 8277 1110 621 487 350 7167 3877 3046 1044 3290 987 386 831 344 487 3134 3099 1507 1592 1559 153 1362 366 216
is_linear=0
shrinkage=0.1


Tree=12
num_leaves=31
num_cat=0
split_feature=8 6 4 4 3 2 1 3 2 6 9 6 8 9 8 2 4 0 0 10 9 0 4 3 3 5 4 4 0 6
split_gain=12.8191 13.6584 17.5277 20.8737 14.0037 17.6887 16.4399 16.3211 14.1804 25.5199 12.8068 16.7888 11.8128 25.2593 10.8165 26.9408 24.5983 52.0704 30.7308 28.4049 32.1605 23.1906 21.4526 18.1208 26.0338 17.9363 42.0433 22.7068 26.0426 22.8447
threshold=1.5000000000000002 29072.246088000004 -457.39255971546294 363.66133683135928 22.095905951569936 53.789207402431721 63524.420000000006 31.790368483354545 80.199112014804498 37644.598840000006 2.5000000000000004 28904.726300000006 22.500000000000004 4.5000000000000009 13.500000000000002 93.669251802486471 40.325239325680748 61631.740000000005 67938.820000000022 5.5000000000000009 5.5000000000000009 61235.200000000004 3856.5686184742267 62.146707330221389 62.699896221560465 18.293709293207389 615.12254607921216 2509.9951530083567 65419.995000000003 23148.630620000004
decision_type=2 2 2 2 2 2 2 2 2 2 2 2 2 2 2 2 2 2 2 2 2 2 2 2 2 2 2 2 2 2
left_child=1 2 -1 -4 -3 7 8 -6 9 -7 11 -5 14 -14 -2 16 17 21 22 20 23 -16 25 -20 -25 -18 -27 29 -29 -28
right_child=12 4 3 10 5 6 -8 -9 -10 -11 -12 -13 13 -15 15 -17 18 -19 19 -21 -22 -23 -24 24 -26 26 27 28 -30 -31
leaf_value=0.090227377657025321 0.0023151407210520664 0.10102431543587367 -0.087777502477255548 -0.055546574501353412 0.032426083314850522 0.039317906210322294 0.061257475421173359 -0.088481024205534053 0.044559485741802622 -0.16454983343386381 0.082236184894154046 0.14940129235778285 0.059946805696743467 -0.047043612378403717 -0.013025638229883547 0.13457713440955402 -0.071011180116276648 0.049766241464534101 0.089214325651257004 -0.028411337671477518 -0.11232719430761254 -0.15075660232107768 -0.13771067740622167 -0.13095412625846906 0.038959420630843927 0.036673599004065215 -0.0092033872187859671 -0.042283024502626922 0.13882743096656072 -0.085433392560200064
leaf_weight=50.9194675385952 1545.0474197864532 12.73397560417652 15.841557577252386 19.344071522355083 15.738168418407438 11.061189189553263 45.208537667989731 38.41964516043663 17.048402190208435 13.801656305789946 33.21853956580162 5.0379792153835288 79.305301532149315 30.573322385549545 300.77635484933853 12.710611611604689 105.42366601526737 172.62707854807377 58.699186086654663 159.485122859478 13.865509212017058 12.742957934737204 21.669920444488525 10.512715414166449 63.395685940980911 84.498132482171059 58.13364215195179 20.105093523859978 13.121186196804045 121.42884042859077
leaf_count=159 6323 38 74 84 57 39 151 178 60 73 105 13 279 145 1335 38 539 619 185 734 80 83 140 54 231 324 246 97 36 633
internal_value=-2.66298e-06 0.0204904 0.0451405 0.0138805 0.000585867 -0.0084671 0.0194315 -0.0533456 -0.025685 -0.0738515 0.041839 -0.0131989 -0.00198064 0.0301771 -0.0032543 -0.0102549 -0.0117682 0.00566108 -0.0233698 0.00078875 0.0325828 -0.0186237 -0.040787 0.0477347 0.014791 -0.0355715 -0.023004 -0.0467018 0.0292382 -0.0607538
internal_weight=3162.49 278.373 124.362 73.4421 154.012 141.278 87.1198 54.1578 41.9112 24.8628 57.6006 24.3821 2884.12 109.879 2774.24 1229.2 1216.49 486.146 730.339 305.958 146.473 313.519 424.38 132.608 73.9084 402.711 297.287 212.789 33.2263 179.562
internal_count=13152 1031 435 276 596 558 323 235 172 112 202 97 12121 424 11697 5374 5336 2037 3299 1284 550 1418 2015 470 285 1875 1336 1012 133 879
is_linear=0
shrinkage=0.1


Tree=13
num_leaves=31
num_cat=0
split_feature=7 7 6 3 2 0 8 4 8 0 1 6 8 5 1 4 4 5 4 2 2 0 5 8 4 0 7 3 4 6
split_gain=11.3042 14.4247 15.8585 14.0107 12.509 26.3917 23.1302 16.6003 18.676 14.7144 14.4337 12.1283 11.7242 28.3838 25.0317 33.4995 22.2573 20.4456 28.2932 28.0054 35.9711 22.1472 21.0898 19.6335 19.6237 18.2845 18.2487 17.9628 36.562 16.9834
threshold=43905.478972600009 74080.068886400011 56401.186575000007 37.422469293460942 55.654889036571781 63466.030000000006 8.5000000000000018 826.65800486343517 5.5000000000000009 42813.98000000001 63988.965000000004 50832.076030000004 8.5000000000000018 13.472419186800703 60320.19000000001 1017.7556004311191 2452.4928854803879 35.826939386526639 -1376.2506502704016 51.26423626348511 45.740974175399849 71194.005000000019 34.617029179818083 14.500000000000002 -1230.9946841142953 60351.115000000005 24391.840027000002 58.454359077977848 814.33180144641676 57452.552695000006
decision_type=2 2 2 2 2 2 2 2 2 2 2 2 2 2 2 2 2 2 2 2 2 2 2 2 2 2 2 2 2 2
left_child=3 4 -3 -1 5 6 9 8 -6 -2 -7 -12 14 -14 16 25 27 18 -15 20 24 22 -21 -22 -20 -16 -26 28 -5 -17
right_child=1 2 -4 12 7 10 -8 -9 -10 -11 11 -13 13 17 15 29 -18 -19 19 21 23 -23 -24 -25 26 -27 -28 -29 -30 -31
leaf_value=0.017794195078651657 0.098247444368265324 -0.058432752721663477 0.068693115007158995 0.032072277897416068 -0.083984563859516151 0.030866644177678756 -0.094142639383113916 -0.012649929631839602 0.063762453464023233 -0.035886590183121778 -0.082509668702105701 -0.0034808000046353382 -0.086745576175468908 0.11675270461124032 -0.1684986483778812 0.015450681224402331 -0.092507393564602733 -0.045020912102960983 -0.12355863206804472 0.0027395242810945531 -0.018941052762920779 0.088499025197276801 0.12506167219748726 -0.098440534684986231 -0.049195697603829885 -0.027682121356645176 0.027205784533494294 0.076808151341904676 -0.20014302196174155 0.17777439903700101
leaf_weight=522.02664238214493 10.174079358577726 12.850828036665915 41.508958235383034 124.98683668673038 10.039259970188139 71.379133820533752 85.918250232934952 310.42578266561031 57.888335183262825 41.691791951656342 29.070238545536995 58.491880536079407 42.774822130799294 20.533810928463936 9.6797201335430128 259.67458687722683 12.773988679051397 108.83293308317661 11.775109872221945 651.9185635894537 51.488203644752502 33.680412948131561 14.40638694167137 78.316062927246094 40.519320413470268 194.54743835330009 136.84919889271259 93.174246400594711 7.1692126840353003 6.6096235811710349
leaf_count=2032 32 62 136 472 47 274 484 1359 198 185 154 243 238 60 53 1008 62 548 73 2700 235 106 40 440 200 827 522 305 41 16
internal_value=-2.77514e-06 -0.010916 0.0386402 0.00328434 -0.0149064 -0.0302775 -0.0623088 -0.00285158 0.0419264 -0.00957468 -0.00250998 -0.029718 -0.000702867 -0.00676227 0.00948224 -0.00388797 0.0359027 -0.0037829 0.000534664 -0.00180735 -0.0263677 0.00938324 0.00538421 -0.0669062 0.00145285 -0.0343564 0.00975209 0.0431823 0.019475 0.0194798
internal_weight=3151.18 729.439 54.3598 2421.74 675.079 296.725 137.784 378.353 67.9276 51.8659 158.941 87.5621 1899.71 1191.09 708.616 470.511 238.104 1148.32 1039.49 1018.95 318.948 700.005 666.325 129.804 189.144 204.227 177.369 225.33 132.156 266.284
internal_count=13152 3174 198 9978 2976 1372 701 1604 245 217 671 397 7946 5162 2784 1904 880 4924 4376 4316 1470 2846 2740 675 795 880 722 818 513 1024
is_linear=0
shrinkage=0.1


Tree=14
num_leaves=31
num_cat=0
split_feature=8 5 7 6 2 8 1 2 8 3 5 7 2 2 0 4 5 7 6 7 5 0 0 0 3 8 2 5 8 3
split_gain=10.8004 12.7958 11.2999 14.3324 26.4606 22.2269 18.1133 19.6247 17.8803 18.3131 16.3101 14.3665 13.9845 11.2068 11.0278 10.2899 10.3249 10.2707 16.3269 14.9355 22.6938 22.457 23.5077 17.5689 17.3953 25.7032 15.9325 15.1568 17.1707 26.0029
threshold=1.0000000180025095e-35 17.734808544798927 43905.478972600009 46367.171861500006 33.833492423632819 9.5000000000000018 98625.450000000026 93.669251802486471 5.5000000000000009 67.17808090444683 55.918756559011619 75015.334046000018 82.68801897677784 77.451815259067175 88300.000000000015 1934.6903742159304 39.580380238356447 35044.015500000009 45581.749275000002 29487.600669000003 24.678411351847448 65715.895000000004 66459.165000000023 66459.165000000023 48.733278772976071 7.5000000000000009 58.570547941825055 23.795238365667945 18.500000000000004 51.15554636585761
decision_type=2 2 2 2 2 2 2 2 2 2 2 2 2 2 2 2 2 2 2 2 2 2 2 2 2 2 2 2 2 2
left_child=1 -1 17 5 -5 14 7 -7 11 -10 12 15 13 -11 -4 -6 -17 18 19 21 -21 27 26 24 25 -22 -23 28 -2 -30
right_child=2 -3 3 4 8 6 -8 -9 9 10 -12 -13 -14 -15 -16 16 -18 -19 -20 20 23 22 -24 -25 -26 -27 -28 -29 29 -31
leaf_value=-0.083143007794208301 -0.0095165690847665071 0.036127340084050365 0.0095484895203066279 -0.065537444910819184 -0.11154231828251376 -0.08237156708089767 0.10939036974560848 0.11744101929198036 0.040636765245849721 -0.024119138164464083 0.082223914619126995 0.10545204947119076 0.012897861623428628 -0.11021495179474548 -0.12187657733790547 0.032302512776362771 -0.064780578050931611 0.01460825428314096 0.036970443307568414 -0.0035931236269457971 0.060054565474346247 -0.15436966235876035 -0.0070017228912472029 0.012447305709206317 -0.11336589167864158 -0.079831855292267481 -0.041015595097252187 0.028560718871963292 0.076532009726499803 -0.032297103494114812
leaf_weight=9.6873140782117826 364.98176147043705 125.87002599239349 93.331979274749756 58.885201796889305 20.530423000454903 104.19601556658745 5.7338729202747336 5.1587375104427329 157.93888363242149 62.67219977080822 18.978421896696091 6.2871205806732169 84.950657039880753 19.925540208816528 6.8533786684274665 18.133848950266838 27.670490682125092 511.38894023001194 104.19452452659607 286.04890623688698 19.477828979492188 17.437755063176155 417.8908272087574 32.530694961547852 51.98202608525753 40.337061941623688 42.917684182524681 325.77502024173737 62.026868775486946 33.983715176582336
leaf_count=45 1546 452 378 313 101 622 22 15 571 282 60 19 336 107 36 67 124 2058 381 1186 68 106 1783 131 290 228 191 1256 208 170
internal_value=-6.24507e-06 0.0276039 -0.00125291 -0.0124704 -0.00278662 -0.0338815 -0.0638613 -0.0729455 0.00607266 0.0155795 -0.00563742 -0.0390208 -0.0155896 -0.0448885 0.000558096 -0.0527137 -0.0263456 0.00210242 -0.00145137 -0.00381268 -0.0199043 0.00166192 -0.0154274 -0.052232 -0.0710524 -0.0342799 -0.0737656 0.0120499 0.000381983 0.0380111
internal_weight=3137.78 135.557 3002.22 691.247 475.973 215.274 115.089 109.355 417.088 344.466 186.527 72.6219 167.548 82.5977 100.185 66.3348 45.8043 2310.97 1799.58 1695.39 430.377 1265.01 478.246 144.328 111.797 59.8149 60.3554 786.767 460.992 96.0106
internal_count=13152 497 12655 3053 1980 1073 659 637 1667 1356 785 311 725 389 414 292 191 9602 7544 7163 1903 5260 2080 717 586 296 297 3180 1924 378
is_linear=0
shrinkage=0.1


Tree=15
num_leaves=31
num_cat=0
split_feature=8 10 6 3 2 7 1 9 4 3 4 8 0 9 0 5 5 1 2 3 8 4 0 2 5 5 8 2 0 2
split_gain=8.99213 11.6568 12.5241 11.0439 29.8892 12.564 13.3548 10.6061 13.1392 13.2411 9.23391 9.20008 15.2382 15.8096 12.7954 15.7624 20.819 15.6232 13.5132 11.0507 10.557 18.6411 30.0424 19.9041 19.4537 16.0354 25.4605 19.8294 15.7532 15.0754
threshold=1.5000000000000002 7.5000000000000009 29072.246088000004 30.895769158403478 53.789207402431721 29108.670313000006 69865.275000000009 4.5000000000000009 -420.35824972916083 62.146707330221389 1441.3716863724078 21.500000000000004 61631.740000000005 5.5000000000000009 60775.310000000005 18.825735111352731 21.553462446824309 51605.430000000008 35.75699561899664 47.009939883316896 13.500000000000002 40.325239325680748 61631.740000000005 93.669251802486471 55.918756559011619 17.350858499450176 6.5000000000000009 54.128824678410631 61235.200000000004 68.518888729608946
decision_type=2 2 2 2 2 2 2 2 2 2 2 2 2 2 2 2 2 2 2 2 2 2 2 2 2 2 2 2 2 2
left_child=1 2 7 -4 -5 -6 -7 8 -1 -10 -11 20 14 19 15 18 -17 -18 -13 -14 25 22 28 24 29 26 -2 -28 -22 -23
right_child=11 -3 3 4 5 6 -8 -9 9 10 -12 12 13 -15 -16 16 17 -19 -20 -21 21 23 -24 -25 -26 -27 27 -29 -30 -31
leaf_value=0.07665515760153413 0.069810239117966452 -0.022115729182595537 0.073670781560276732 -0.08700183306271575 0.10883694013124634 -0.017565517192363898 0.096561608080616756 0.093990017598028663 -0.11220254067754341 -0.06110271815623846 0.11359552923183683 0.071286817450490217 0.097425480381362631 -0.049810580533139935 -0.12131516541037753 0.097741618157698509 -0.15931626656692144 0.0068251017939978649 -0.11698111503428535 0.031655889976329753 -0.010108058620828064 -0.014833130388228855 0.040436742011971373 0.12225319948909796 0.12065797803517236 -0.0020418221515907308 -0.054392532438831825 0.031253412536472701 -0.13947994070720696 -0.047611960565721118
leaf_weight=23.674555748701096 84.960100620985031 58.938256949186325 21.331985637545586 31.415287971496582 15.680266305804251 45.597262442111969 13.227589145302771 41.31845298409462 10.504070162773134 5.2115679532289487 7.2132212817668915 4.9063983261585262 35.235086999833584 18.221126213669777 9.8861235976219159 23.805884435772896 6.6690286844968787 37.408312059938908 17.099043682217598 92.913497641682625 267.65410889685154 403.56658115237951 153.87376195192337 9.4337130188941938 9.1497524678707105 1339.3962583839893 44.736862897872925 68.312142342329025 9.755224369466303 215.0881183296442
leaf_count=78 285 242 69 147 46 185 40 129 51 23 21 18 113 94 57 76 38 162 93 360 1204 1851 566 28 26 5561 213 264 70 1042
internal_value=-1.30933e-05 0.0172867 0.0280793 0.00802568 -0.00519501 0.0292991 0.00809756 0.0571037 0.0244004 -0.0295538 0.0403185 -0.00167577 0.0168042 0.0373469 -0.0133319 -0.00145566 0.0223863 -0.0183126 -0.0750043 0.0497396 -0.00342131 -0.011056 0.00499911 -0.0219221 -0.0240886 0.00188494 0.0284468 -0.00263924 -0.0146575 -0.0262294
internal_weight=3126.18 274.113 215.174 127.252 105.92 74.5051 58.8249 87.9219 46.6034 22.9289 12.4248 2852.07 246.145 146.37 99.7748 89.8887 67.8832 44.0773 22.0054 128.149 2605.93 1068.52 431.283 637.238 627.804 1537.41 198.009 113.049 277.409 618.655
internal_count=13152 1031 789 487 418 271 225 302 173 95 44 12121 1011 567 444 387 276 200 111 473 11110 4787 1840 2947 2919 6323 762 477 1274 2893
is_linear=0
shrinkage=0.1


Tree=16
num_leaves=31
num_cat=0
split_feature=8 0 7 1 7 7 7 3 3 3 6 7 8 0 4 7 4 2 7 0 8 9 3 3 8 3 7 2 0 8
split_gain=7.90154 9.66281 14.7663 12.6763 9.24137 14.555 15.6681 15.0094 16.5968 18.4929 13.7067 10.6016 15.2036 22.4789 19.4181 16.1512 14.8276 12.5012 10.1439 9.88261 9.20039 13.7404 9.14925 16.8267 13.7368 13.4243 18.2827 14.4907 15.2693 25.4985
threshold=1.0000000180025095e-35 57413.810000000005 21187.245912000002 42645.790000000001 42237.425876000001 40094.458160000002 39599.25716310001 81.450644388691828 79.997644077737576 79.435593169799276 53882.573250000009 35852.413035200014 9.5000000000000018 51016.285000000011 3373.8293430602725 37265.953855000007 1261.2261781109339 44.104554368809374 76327.261129900013 95471.990000000005 22.500000000000004 5.5000000000000009 37.283033800073873 34.933739947749373 2.5000000000000004 60.38540061585045 33747.541959000009 71.729704770675411 69373.375000000015 6.5000000000000009
decision_type=2 2 2 2 2 2 2 2 2 2 2 2 2 2 2 2 2 2 2 2 2 2 2 2 2 2 2 2 2 2
left_child=1 3 -3 -1 5 6 7 8 9 10 11 20 16 15 17 -14 -13 -15 -6 -7 22 -22 23 24 -2 26 27 28 -24 -30
right_child=4 2 -4 -5 18 19 -8 -9 -10 -11 -12 12 13 14 -16 -17 -18 -19 -20 -21 21 -23 25 -25 -26 -27 -28 -29 29 -31
leaf_value=0.099509088110033728 0.087707206307317501 -0.098916798509047554 0.046511362523990546 -0.071957332058810261 -0.012841134779484254 0.03656409089927893 -0.11006272015760772 -0.055683312660748309 0.05307640944608958 -0.14956399872073239 0.048052658150948752 0.02236932220230747 0.045528036250456073 -0.014153331092619448 -0.073331712621431219 -0.099083059639131749 0.11195943407680252 0.081227879121305538 0.048074665789129813 -0.072424827363300456 0.054693146657352802 -0.087911679644719715 -0.016415417746415747 0.044036952244130664 -0.013430750568466182 0.0044561994906470092 -0.095690465200349656 -0.08947576159416247 -0.078383328404930466 0.052139842363060941
leaf_weight=5.5817839354276684 14.499085173010824 7.4968323856592169 101.65410576760769 18.946435585618019 734.00561881810427 156.24491962790489 12.877785399556158 46.327553853392601 61.404059648513794 8.2024739086627942 59.753692239522934 50.730792358517647 10.386510595679281 19.585636302828789 15.00378170609474 30.12044270336628 29.053239017724991 46.049781620502472 28.394211113452911 8.787606477737425 50.770885124802589 7.7938813120126715 653.0478243008256 102.32290253043175 182.03516341745853 509.0413366407156 28.003194332122803 24.274633035063744 18.622812420129776 76.247160583734512
leaf_count=17 46 37 357 86 3292 587 65 223 215 47 206 190 38 85 75 170 88 154 98 49 181 42 2957 372 759 2077 146 129 86 278
internal_value=-7.26076e-06 0.0237779 0.0365229 -0.0329374 -0.00107295 0.00218765 -0.0001057 0.000587306 0.00189274 0.000268965 0.000906631 -0.000601811 0.0210975 -0.0012256 0.0293042 -0.0620029 0.0549934 0.0527661 -0.0105724 0.0307607 -0.00321785 0.0357151 -0.00463574 0.0111518 -0.00596942 -0.00823953 -0.0163159 -0.0134374 -0.0109695 0.0265184
internal_weight=3117.27 133.679 109.151 24.5282 2983.59 2221.19 2056.15 2043.28 1996.95 1935.55 1927.34 1867.59 200.93 121.146 80.6392 40.507 79.784 65.6354 762.4 165.033 1666.66 58.5648 1608.09 298.857 196.534 1309.24 800.196 772.192 747.918 94.87
internal_count=13152 497 394 103 12655 9265 8629 8564 8341 8126 8079 7873 800 522 314 208 278 239 3390 636 7073 223 6850 1177 805 5673 3596 3450 3321 364
is_linear=0
shrinkage=0.1


Tree=17
num_leaves=31
num_cat=0
split_feature=8 5 7 7 7 3 3 3 6 7 8 0 4 7 4 5 2 4 0 0 7 1 3 8 7 0 8 8 2 3
split_gain=6.45981 8.59544 7.49345 11.8294 12.816 12.2511 13.5357 15.5112 11.2215 8.6334 12.3551 18.5333 15.842 13.5044 12.7962 14.044 10.1846 9.51219 8.52717 19.9117 15.255 23.3324 22.4067 24.5735 19.3498 16.6411 26.3534 26.1695 21.5071 26.8707
threshold=1.0000000180025095e-35 17.734808544798927 42237.425876000001 40094.458160000002 39599.25716310001 81.450644388691828 79.997644077737576 79.435593169799276 53882.573250000009 35852.413035200014 9.5000000000000018 51016.285000000011 3373.8293430602725 37265.953855000007 3373.8293430602725 34.282721854258725 44.104554368809374 1456.7601491924436 65715.895000000004 65828.97500000002 27272.954321000001 63135.31500000001 60.38540061585045 16.500000000000004 32631.919011000002 61631.740000000005 13.500000000000002 7.5000000000000009 28.287261304236157 51.15554636585761
decision_type=2 2 2 2 2 2 2 2 2 2 2 2 2 2 2 2 2 2 2 2 2 2 2 2 2 2 2 2 2 2
left_child=1 -1 3 4 5 6 7 8 9 18 14 13 16 -12 15 17 -13 -11 20 -20 25 22 -22 -24 -25 26 -2 -27 -28 -30
right_child=2 -3 -4 -5 -6 -7 -8 -9 -10 10 11 12 -14 -15 -16 -17 -18 -19 19 -21 21 -23 23 24 -26 27 28 -29 29 -31
leaf_value=-0.068976283020787704 0.020336594801596788 0.028729422667288496 -0.009525560662084178 0.027775295256699001 -0.099992020716989496 -0.050491846519707111 0.048073257718625556 -0.13919182131063132 0.043685825569695393 0.035442609343621895 0.041005898900022077 -0.012758200726185984 -0.066804747868995276 -0.091719349411608489 0.17104947479977586 -0.084602961358997752 0.073433038613753318 0.1402403798571292 -0.13088483178729562 -0.0094596490632007368 -0.021399856954296137 -0.066001728852409056 0.064270946437636742 -0.087677519477355859 0.099910944531104107 -0.017957742174541186 -0.1696103311631203 0.048618127344078416 0.011640853899903289 -0.076727765300089623
leaf_weight=9.7148814052343351 215.68294350802898 123.01992875337601 761.52710392326117 164.49848580360413 12.762926921248434 45.999283030629158 61.034804865717888 7.9454529732465735 59.184749320149422 52.84148296713829 10.379060760140417 19.556232988834381 14.831824958324431 29.326708436012268 7.8323585093021384 8.4561622589826566 45.853666573762894 10.359116375446318 13.810941487550734 609.47099843621254 201.42929008603096 68.873340845108032 78.715981885790825 22.671633273363117 7.2594400644302359 82.427318513393402 10.838178008794783 208.11059676110744 86.471679598093033 57.152805790305138
leaf_count=45 850 452 3390 636 65 223 215 47 206 191 38 85 75 170 20 39 154 28 86 2614 936 335 270 111 22 341 61 750 359 338
internal_value=-6.07037e-06 0.0215783 -0.000968997 0.00197441 -9.66601e-05 0.000529388 0.00170845 0.000241803 0.000818354 -0.000543956 0.0191165 -0.00114541 0.0265054 -0.0570251 0.0496912 0.0364263 0.0476636 0.0526199 -0.00290187 -0.0121502 0.00264272 -0.0133518 -0.00165734 0.0349449 -0.0421801 0.0118167 -0.00224402 0.0297302 -0.0337743 -0.0235239
internal_weight=3108.04 132.735 2975.3 2213.78 2049.28 2036.52 1990.52 1929.48 1921.54 1862.35 199.437 119.947 80.2417 39.7058 79.4891 71.6568 65.4099 63.2006 1662.92 623.282 1039.63 378.95 310.076 108.647 29.9311 660.684 370.146 290.538 154.463 143.624
internal_count=13152 497 12655 9265 8629 8564 8341 8126 8079 7873 800 522 314 208 278 258 239 219 7073 2700 4373 1674 1339 403 133 2699 1608 1091 758 697
is_linear=0
shrinkage=0.1


Tree=18
num_leaves=31
num_cat=0
split_feature=8 9 9 6 8 2 3 3 6 6 6 7 2 1 6 3 7 6 7 6 7 9 5 5 3 0 0 6 5 8
split_gain=6.27058 16.1663 8.14266 12.423 7.9833 17.6968 19.0639 15.5656 18.5968 14.1117 22.3205 22.1669 20.4514 14.9403 15.9761 27.9597 16.3835 14.8676 20.4556 15.8704 13.8625 13.4255 24.5503 30.6133 27.3662 17.3447 16.0775 16.0695 14.9095 19.131
threshold=22.500000000000004 4.5000000000000009 1.0000000180025095e-35 18647.375170000003 13.500000000000002 93.669251802486471 88.696213901504294 24.380012667507241 51935.021735000009 53208.683460000007 55787.928820000008 46276.015459000009 33.833492423632819 44648.255000000012 69005.953584000017 54.128824678410631 60635.450738000007 45047.639495000003 54510.502282200003 49935.410915000008 17354.681752 3.5000000000000004 21.018216327195955 21.34647610289181 51.15554636585761 71536.005000000019 69615.160000000018 42804.964820000008 22.378253613595234 18.500000000000004
decision_type=2 2 2 2 2 2 2 2 2 2 2 2 2 2 2 2 2 2 2 2 2 2 2 2 2 2 2 2 2 2
left_child=4 2 3 -2 20 6 7 8 -6 11 -11 21 -12 -14 15 -15 -16 -13 -19 -20 -1 22 24 26 -9 -26 -24 -25 29 -23
right_child=1 -3 -4 -5 5 -7 -8 9 -10 10 12 17 13 14 16 -17 -18 18 19 -21 -22 28 23 27 25 -27 -28 -29 -30 -31
leaf_value=-0.1443348018195772 0.066251282900785302 -0.038857916527623382 0.063430332866453817 -0.12390419802648747 0.076378812276977889 0.11046221341606421 -0.082178693544749604 0.0183769705126865 -0.058295739631391841 0.089283330004898853 -0.12818337164287091 -0.091205831800894144 0.14364041193023433 0.066788733829781829 -0.0088197562652183731 -0.13818134241963137 0.082767463471909997 0.10418854018027759 0.01760830901687746 -0.13161341853835509 0.0038730321107802164 -0.033154793678108883 0.14179961391555226 0.016013410656127585 -0.067361889181565757 0.1351323778423584 -0.031211177000027891 -0.055154899455761769 -0.046728644797843999 0.03973566001545431
leaf_weight=6.3333251178264609 7.4588954299688321 29.628806680440903 62.775961652398109 6.3695502579212189 43.565680891275406 12.646947041153906 34.068528726696968 76.568495228886604 13.409354507923124 34.600161150097847 11.523690789937971 57.867491349577904 7.9601318985223761 10.531676337122919 55.169138759374619 18.079963624477386 30.236144050955772 11.002748936414717 14.384387180209162 14.127042219042776 1792.2407794520259 85.315944969654083 27.222511559724808 261.98763816058636 106.64553790539503 4.4047156870365134 6.6915106028318396 36.098497658967972 155.98841588199139 62.302755236625671
leaf_count=34 26 145 220 33 150 38 182 318 73 108 67 382 21 36 224 104 99 33 58 86 7320 386 74 1088 594 12 28 174 797 242
internal_value=-7.46207e-06 0.0238676 0.0481284 -0.0213366 -0.000855456 -0.00720055 -0.0084619 -0.00626982 0.0446825 -0.0089363 0.0177069 -0.0138013 -0.000844 0.0111863 0.00193896 -0.0627338 0.023605 -0.0589178 -0.0116329 -0.0563291 0.00335115 -0.00846432 0.00129724 0.0176373 -0.0276173 -0.0593301 0.107663 0.00739486 -0.0251711 -0.00239124
internal_weight=3097.21 106.233 76.6044 13.8284 2990.97 1192.4 1179.75 1145.68 56.975 1088.71 168.101 920.608 133.501 121.977 114.017 28.6116 85.4053 97.3817 39.5142 28.5114 1798.57 823.226 519.619 332 187.619 111.05 33.914 298.086 303.607 147.619
internal_count=13152 424 279 59 12728 5374 5336 5154 223 4931 659 4272 551 484 463 140 323 559 177 144 7354 3713 2288 1364 924 606 102 1262 1425 628
is_linear=0
shrinkage=0.1


Tree=19
num_leaves=31
num_cat=0
split_feature=7 6 7 7 7 3 3 7 8 4 4 4 5 5 2 2 6 7 7 1 6 1 9 5 2 6 6 1 1 9
split_gain=5.81313 10.0788 9.16345 6.15759 13.7209 11.3697 10.5984 8.84521 8.56207 26.9142 11.5133 13.0047 11.2396 23.2908 16.3336 14.5146 11.2275 11.1021 18.3116 29.7028 15.1007 15.9545 11.0461 10.1191 9.78401 10.0525 9.09663 8.33627 8.17799 9.72193
threshold=74080.068886400011 56401.186575000007 72907.779867000019 41863.419109000009 40094.458160000002 81.450644388691828 80.496170208260338 42070.724643000009 2.5000000000000004 -1075.6078430801642 -1327.6357438722914 -1552.0465658679384 20.562319499552945 19.892536748219932 70.612615467130823 30.895769158403478 15392.035240000003 23368.240100999999 27113.777441000006 69615.160000000018 22594.869405000001 51751.790000000008 4.5000000000000009 24.312832456383525 12.912138319386104 49610.953390000002 49935.410915000008 69373.375000000015 67479.005000000019 3.5000000000000004
decision_type=2 2 2 2 2 2 2 2 2 2 2 2 2 2 2 2 2 2 2 2 2 2 2 2 2 2 2 2 2 2
left_child=2 -2 3 4 5 6 8 -5 9 10 11 -1 13 14 15 -11 -17 -14 27 20 -20 -22 23 -23 -10 -26 -27 28 29 -19
right_child=1 -3 -4 7 -6 -7 -8 -9 24 12 -12 -13 17 -15 -16 16 -18 18 19 -21 21 22 -24 -25 25 26 -28 -29 -30 -31
leaf_value=0.080665497198399119 -0.045792964729119395 0.05737498653373671 -0.08072083741492464 -0.094860514944005853 0.033931847717169478 -0.048098234705673197 0.048685833814912621 -0.0066316079833619443 -0.11404776638757015 0.10298004131491852 0.14257675407862405 -0.075722523795054855 -0.1006534028129281 0.10234201116322293 0.09193533029896328 -0.17754406214179508 -0.034884274441395594 -0.025379531705129306 -0.20885350702113109 0.067440223002105601 0.080988061916738796 -0.010454658992439411 -0.22323803543045631 -0.15265453692151729 -0.0031755783119837479 0.1323235833427546 0.021080128664897963 -0.051113509283873509 0.17150610860536239 0.099651370202462175
leaf_weight=22.923131123185161 12.400004118680952 40.066420644521713 14.201102301478384 11.537133291363714 130.23775763809681 47.085604891180992 46.718227460980415 752.10311305522919 7.7472444474697104 6.398758426308631 19.907741382718086 6.9232845902442923 14.623823523521422 28.614666521549225 12.721944421529768 6.6781823635101309 31.719446867704391 11.316124305129057 8.2598463743925077 17.490660160779953 6.634794980287551 14.099656403064733 5.1879505664110175 7.7577288001775733 1682.817263148725 8.0643348693847638 83.0720504373312 7.1239154487848273 6.2081116139888755 13.806600853800772
leaf_count=79 62 136 85 63 491 231 163 3342 46 19 53 32 71 87 41 37 134 47 47 58 21 56 30 42 7257 22 312 31 15 42
internal_value=-9.8017e-06 0.0329921 -0.000580878 -0.000203754 0.0024254 0.000493421 0.00159509 -0.00796458 0.000511403 0.0179044 0.0836762 0.0443892 0.00143052 0.0286167 -0.00806075 -0.0364591 -0.0596959 -0.0193822 -0.00724054 -0.0420321 -0.0876864 -0.0579709 -0.0920605 -0.0609249 -0.00191345 -0.00142374 0.0309237 0.0465287 0.0687303 0.0433332
internal_weight=3084.45 52.4664 3031.98 3017.78 2254.14 2123.9 2076.82 763.64 2030.1 248.396 49.7542 29.8464 198.642 86.133 57.5183 44.7964 38.3976 112.509 97.8854 59.4306 41.94 33.6801 27.0453 21.8574 1781.7 1773.95 91.1364 38.4548 31.3308 25.1227
internal_count=13152 198 12954 12869 9464 8973 8742 3405 8579 942 164 111 778 318 231 190 171 460 389 254 196 149 128 98 7637 7591 334 135 104 89
is_linear=0
shrinkage=0.1


Tree=20
num_leaves=31
num_cat=0
split_feature=8 1 2 6 3 7 2 0 1 4 0 6 8 4 0 9 7 0 10 6 2 2 5 8 1 2 0 6 2 9
split_gain=5.23225 10.6671 20.0631 10.904 12.2412 23.2715 20.5664 17.462 12.1963 9.85565 9.59272 19.5846 8.85583 13.2647 20.7804 14.9014 19.9984 17.3353 16.3623 15.7992 15.4877 14.2579 20.7092 21.0588 15.6301 14.5163 13.4832 18.2212 13.1716 16.4757
threshold=21.500000000000004 42976.095000000008 35.75699561899664 19335.125940000002 51.26423626348511 27666.847407000005 30.412551130420031 60611.585000000006 67479.005000000019 6421.4348129500004 69156.310000000012 53882.573250000009 13.500000000000002 40.325239325680748 63747.010000000009 5.5000000000000009 29108.670313000006 67938.820000000022 9.5000000000000018 22020.454250000006 93.669251802486471 54.522221198050083 23.383757890483569 17.500000000000004 70220.175000000003 64.400413814642008 66821.24500000001 55621.323970000005 81.450644388691828 4.5000000000000009
decision_type=2 2 2 2 2 2 2 2 2 2 2 2 2 2 2 2 2 2 2 2 2 2 2 2 2 2 2 2 2 2
left_child=9 2 -2 -3 6 8 7 -5 -6 12 -7 -12 -1 14 -14 17 -17 20 21 -20 26 -19 24 25 -23 -24 28 -28 -15 -30
right_child=1 3 -4 4 5 10 -8 -9 -10 -11 11 -13 13 15 -16 16 -18 18 19 -21 -22 22 23 -25 -26 -27 27 -29 29 -31
leaf_value=0.003413389909325438 0.099488713792501737 -0.027681602046392358 -0.11944567796820738 -0.14720361074974131 -0.12237951446027762 0.01179909914781606 0.090678706544022492 0.05866700016057922 0.015453750663789158 -0.10382437972624248 0.135129288451871 -0.0605217549925475 -0.0072907809800140423 -0.012093196472063306 0.04401535724553033 0.0086492174460000796 -0.10089090499057939 0.083083124023407007 0.078694464545589024 -0.043165988406560038 0.11440920223773937 -0.010113982655267514 -0.11749150146841868 0.11248444455710999 -0.15435582829609373 0.034689686197110596 -0.11297043895267961 0.043668636720870284 -0.10816748454151133 0.039269827123744022
leaf_weight=1786.1547797620296 5.9194791167974499 38.547263510525227 14.291161745786665 7.6122338250279453 17.007402822375301 52.666636683046818 57.181560806930065 8.9810141026973707 10.312426373362539 9.3272747397422773 20.043006002902988 6.8698445260524741 316.64727064222097 214.80974936485291 105.16065219044685 26.435948207974434 45.100470073521137 36.106021299958229 12.38402137160301 75.512152314186096 7.5048431456089011 44.448482543230057 8.4347780942916852 29.050210416316986 9.0403744727373105 24.401060715317726 36.421982578933239 9.3284198939800245 32.072867959737778 9.9246089458465558
leaf_count=7314 21 180 81 44 101 220 196 36 42 51 59 31 1457 1012 383 110 282 118 48 374 22 192 44 89 52 90 234 34 197 38
internal_value=-2.45858e-06 0.0141936 -0.0553222 0.0206024 0.0309039 0.00928022 0.0622366 -0.0357772 -0.0703515 -0.00120001 0.036618 0.0851869 -0.000861652 -0.00818425 0.00550032 -0.0174797 -0.0604109 -0.0118901 0.00832561 -0.0259966 -0.0274972 0.0282409 0.0110783 0.0504661 -0.0344929 -0.00440219 -0.0310172 -0.081032 -0.022107 -0.0733259
internal_weight=3077.7 239.432 20.2106 219.221 180.674 106.899 73.7748 16.5932 27.3198 2838.27 79.5795 26.9129 2828.94 1042.78 421.808 620.976 71.5364 549.44 239.377 87.8962 310.062 151.481 115.375 61.886 53.4889 32.8358 302.558 45.7504 256.807 41.9975
internal_count=13152 1011 102 909 729 453 276 80 143 12141 310 90 12090 4776 1840 2936 392 2544 1007 422 1537 585 467 223 244 134 1515 268 1247 235
is_linear=0
shrinkage=0.1


Tree=21
num_leaves=31
num_cat=0
split_feature=8 0 1 7 3 1 10 2 1 2 6 2 3 7 5 6 8 8 0 2 2 3 6 4 7 6 8 0 9 8
split_gain=4.81037 6.9398 9.42168 7.14841 9.4753 6.80635 6.21559 6.33334 7.84374 9.0856 6.12213 5.29173 9.57045 4.99716 9.5884 7.3384 14.9849 13.3615 14.3605 13.9067 13.0217 12.7617 9.2047 16.0186 9.03033 8.17458 10.912 17.107 14.8688 15.9461
threshold=1.0000000180025095e-35 57413.810000000005 42645.790000000001 23368.240100999999 59.191149746271272 62022.640000000007 8.5000000000000018 53.191360822940233 60660.640000000007 39.348200526193516 31271.220880000004 64.400413814642008 74.562609857061787 43905.478972600009 16.491574916862913 44088.446625000004 2.5000000000000004 9.5000000000000018 76183.835000000006 93.669251802486471 33.833492423632819 67.17808090444683 90165.99897500001 4135.0362152149037 52862.793673200002 88690.870815000017 11.500000000000002 44648.255000000012 4.5000000000000009 16.500000000000004
decision_type=2 2 2 2 2 2 2 2 2 2 2 2 2 2 2 2 2 2 2 2 2 2 2 2 2 2 2 2 2 2
left_child=1 2 -1 4 5 -3 7 8 -5 -10 -11 -9 -13 -2 -15 17 -17 24 19 -19 -18 22 23 25 -16 26 27 -22 -28 -30
right_child=13 3 -4 6 -6 -7 -8 11 9 10 -12 12 -14 14 15 16 20 18 -20 -21 21 -23 -24 -25 -26 -27 28 -29 29 -31
leaf_value=0.088439189429312448 0.0014050288420050746 0.012221216889684574 -0.062390781439333437 0.11925999992217631 0.071867189485204291 -0.13445456116651647 -0.032614062808364951 0.11018306325916923 0.051473637826409069 -0.0065549301522351312 -0.14314527387142736 -0.061259116914591155 0.091779692740676669 -0.14230118223472449 -0.030273226021321872 -0.062955157815725013 -0.038779108901000822 -0.079158607788324842 0.04361114884528848 0.094722289842997631 0.089919366774466811 -0.0054602060235458237 0.10120568990626688 -0.052423967753024381 0.032136226768541165 -0.033815701631973692 0.1108441958433974 -0.041741262682132421 0.10795642037762983 -0.030608057757533121
leaf_weight=5.2974267899990108 2264.4317549914122 5.3754071146249789 18.97893799841404 6.6173174381256095 6.7414247989654532 7.6892451047897339 9.8484814912080747 23.120961368083954 15.364610940217974 8.3157785683870298 5.4202752560377112 6.3161934614181545 11.574413940310476 5.3066150099039069 44.380439832806587 35.986719653010368 61.089600972831249 72.625127628445625 13.499816596508024 4.9106204062700263 15.395164817571638 213.23080974817276 16.898750364780426 23.582455888390541 48.545280933380127 14.500640466809271 39.609077677130699 27.491573989391327 13.331179857254027 22.029182970523834
leaf_count=17 9602 21 86 20 23 41 41 69 54 33 28 28 36 38 196 163 335 491 62 15 48 917 52 113 190 64 116 118 41 94
internal_value=-7.50789e-06 0.0187668 -0.0294777 0.029776 -0.0244204 -0.0741053 0.0421743 0.0517736 0.0209882 -0.00135817 -0.0604538 0.0785854 0.0377501 -0.000842781 -0.00841255 -0.00734751 -0.000875672 -0.0243448 -0.0515734 -0.0681461 0.0041204 0.0109086 0.0311029 0.023506 0.00233007 0.0370347 0.0457519 0.0055213 0.0687661 0.021632
internal_weight=3067.51 130.66 24.2764 106.384 19.8061 13.0647 86.578 76.7296 35.718 29.1007 13.7361 41.0116 17.8906 2936.84 672.413 667.106 483.145 183.961 91.0356 77.5357 447.158 386.069 172.838 155.939 92.9257 132.357 117.856 42.8867 74.9694 35.3604
internal_count=13152 497 103 394 85 62 309 268 135 115 61 133 64 12655 3053 3015 2061 954 568 506 1898 1563 646 594 386 481 417 166 251 135
is_linear=0
shrinkage=0.1


Tree=22
num_leaves=31
num_cat=0
split_feature=4 8 6 3 2 8 0 8 2 8 9 8 7 7 6 1 2 5 7 6 7 1 0 6 3 4 4 3 7 5
split_gain=4.66746 9.48213 12.743 11.0682 11.8907 14.2851 8.42001 6.46593 5.57871 9.93167 4.82535 4.66254 10.1692 16.1299 10.2626 10.1115 16.7713 9.85299 9.70553 14.2054 12.0023 9.68022 9.9218 8.34268 11.6688 8.28293 7.51978 7.25332 12.495 6.3103
threshold=-1640.4329731606629 8.5000000000000018 24886.465270000004 35.259548621439528 35.130189230635523 18.500000000000004 59168.075000000004 14.500000000000002 35.130189230635523 1.5000000000000002 4.5000000000000009 21.500000000000004 19678.831094000005 20688.117458000004 10695.183185000002 42976.095000000008 35.75699561899664 25.571925872800055 39172.97103600001 22763.594700000005 45716.411553200007 56671.705000000009 63988.965000000004 71576.424468000012 54.355010856953974 6856.8354230313716 -560.40415431896679 75.919386814641783 25727.652898000004 12.234312210112313
decision_type=2 2 2 2 2 2 2 2 2 2 2 2 2 2 2 2 2 2 2 2 2 2 2 2 2 2 2 2 2 2
left_child=1 2 8 4 5 -3 7 -5 -1 -10 -7 25 -13 -14 -15 16 -16 -17 19 -19 -20 -22 -23 24 -24 29 -18 28 -21 -2
right_child=11 3 -4 6 -6 10 -8 -9 9 -11 -12 12 13 14 15 17 26 18 20 27 21 22 23 -25 -26 -27 -28 -29 -30 -31
leaf_value=0.12908446515086996 0.046884474040132212 0.021154974359467168 -0.01362728919616981 -0.079796094254437289 0.078861135725497591 -0.041528809944200371 -0.14649559402806658 0.025826373260827915 0.12927986783916742 0.0066361718107836622 -0.19115781828629147 0.14887118320569917 -0.16542631321420381 -0.10182099983678575 0.091393345026588135 0.04387536636352074 0.0078215471754970647 -0.14072263692036238 0.11033701444704076 0.073523277875736343 0.10326820563049406 -0.11814519118389243 0.083334964539697909 0.099241724447865901 -0.13034346487365117 -0.12890726159724061 -0.15639549263293301 0.082570956856355113 -0.13016979991119679 -0.0023085701980640853
leaf_weight=14.322591081261633 26.335378766059875 27.709873989224434 23.395378082990646 10.902120441198354 22.162578225135803 3.844486862421034 7.3376511037349692 12.37447367608547 10.5406830906868 17.674383640289307 4.9050631672143936 5.3706521093845359 5.14233374595642 7.4126802682876578 5.8692278861999538 112.14640933275223 3.8744202852249154 10.503397449851038 12.373030364513395 5.2482537329196948 6.5698546618223181 8.918459966778757 4.3069504424929637 6.6810192614793769 6.2852560505270958 5.1385720521211615 9.9488223493099177 7.2765109688043585 7.066183477640152 2648.4533893838525
leaf_count=41 108 114 99 64 76 21 49 63 35 72 28 15 32 42 21 430 17 62 39 18 23 56 19 21 35 32 64 25 43 11388
internal_value=-4.44412e-06 0.0168936 0.0456523 -0.00435499 0.0210957 -0.0140182 -0.0530894 -0.0236443 0.0782557 0.0524538 -0.125412 -0.000907072 0.0129197 0.00959514 0.0137914 0.0179301 -0.0502344 0.025094 -0.00290409 -0.0468916 0.0264254 -0.0052654 -0.0324897 0.0117357 -0.0434586 -0.0020679 -0.110368 0.00341452 -0.0433584 -0.00182423
internal_weight=3060.09 155.169 65.933 89.2362 58.622 36.4594 30.6142 23.2766 42.5377 28.2151 8.74955 2904.92 224.993 219.623 214.48 207.068 19.6925 187.375 75.2289 30.0943 45.1346 32.7615 26.1917 17.2732 10.5922 2679.93 13.8232 19.5909 12.3144 2674.79
internal_count=13152 662 247 415 239 163 176 127 148 107 49 12490 962 947 915 873 102 771 341 148 193 154 131 75 54 11528 81 86 61 11496
is_linear=0
shrinkage=0.1


Tree=23
num_leaves=31
num_cat=0
split_feature=7 7 6 8 10 6 7 4 0 3 2 3 6 1 6 3 6 8 6 5 6 3 1 6 6 7 8 7 6 6
split_gain=4.12982 7.01304 6.85769 4.04736 8.73897 9.76688 7.75291 8.70593 12.8267 7.61961 7.92437 12.54 9.38063 7.61875 7.17351 7.03635 8.68087 6.49637 6.04399 6.26065 5.91671 12.9601 9.95049 5.6876 12.2668 10.4377 13.0094 29.9622 16.8382 15.5778
threshold=74080.068886400011 72907.779867000019 56401.186575000007 1.5000000000000002 7.5000000000000009 21055.699795000004 42244.440588000005 -1441.7479777638616 63440.985000000008 25.418141507848471 53.789207402431721 36.146508539221621 27053.050445000004 70584.460000000006 125730.12557000002 45.219609013227554 51369.550100000008 8.5000000000000018 13701.267515000001 21.2904248700377 29160.403930000004 55.625171738831405 58091.160000000011 31396.886930000004 28498.770175000005 24893.832765000003 18.500000000000004 37386.354966000006 29084.138060000005 30603.300770000005
decision_type=2 2 2 2 2 2 2 2 2 2 2 2 2 2 2 2 2 2 2 2 2 2 2 2 2 2 2 2 2 2
left_child=1 3 -2 4 5 6 7 -1 -9 -7 11 -11 -13 -12 23 -14 -17 -16 19 -6 -20 22 -22 24 -5 -26 28 -28 -27 -30
right_child=2 -3 -4 14 18 9 -8 8 -10 10 13 12 15 -15 17 16 -18 -19 20 -21 21 -23 -24 -25 25 26 27 -29 29 -31
leaf_value=0.12572828281483378 -0.037447879396265572 -0.072367530610130723 0.048851774762274501 -0.0011602660873829165 -0.1888058453217652 0.093787343576600318 0.1454171595287789 -0.13436735897666519 0.047302813914102723 0.030651434165892846 0.012166903095718315 0.026907731464617519 -0.15173665393188462 0.1000239657611437 0.0016981802971070656 -0.10104522108840415 0.067153795754599538 -0.13043871289563644 0.028365865221578357 -0.025217344790554215 -0.090954241682723966 -0.14006898768105905 0.070503155790654734 0.0039758980863119613 -0.073102926708458069 -0.096539434806629423 0.085820014859663299 -0.11661728482095038 0.019980267347401034 -0.050808584955672288
leaf_weight=8.9577693343162519 12.088155388832091 13.510468810796736 38.644242122769356 1213.1109897047281 4.0895406901836378 10.23579855263233 9.2253562510013563 4.8865460157394436 18.988241821527481 24.31450954079628 81.047671288251877 8.6046004742383939 11.511331394314768 11.239029631018637 6.832769736647605 9.3958878815174085 4.5564301908016196 8.1689622998237592 23.091949835419655 5.466735303401947 6.0607638210058274 8.7424221783876401 10.310727015137671 1267.7983936220407 39.424026265740395 30.272126257419586 29.146870449185371 9.7593048438429815 65.923775382339954 58.827375210821629
leaf_count=32 62 85 136 5280 24 32 25 25 68 89 314 34 61 34 36 47 16 67 85 24 29 45 34 5256 230 180 109 77 299 317
internal_value=-4.53078e-06 -0.000482438 0.0282889 -0.00015762 0.0117461 0.0215129 0.0644201 0.0416614 0.0101197 0.0102976 0.00462574 -0.0242077 -0.0633607 0.0228665 -0.00129478 -0.093864 -0.0461162 -0.0702549 -0.0225722 -0.0952239 -0.0081698 -0.0417639 0.0107313 -0.000913633 -0.00519921 -0.0261961 -0.0166604 0.0350402 -0.0296356 -0.0134008
internal_weight=3054.23 3003.5 50.7324 2989.99 260.725 202.963 42.0579 32.8326 23.8748 160.905 150.669 58.3828 34.0682 92.2867 2729.26 25.4636 13.9523 15.0017 57.7621 9.55628 48.2059 25.1139 16.3715 2714.26 1446.46 233.353 193.929 38.9062 155.023 124.751
internal_count=13152 12954 198 12869 1018 777 150 125 93 627 595 247 158 348 11851 124 63 103 241 48 193 108 63 11748 6492 1212 982 186 796 616
is_linear=0
shrinkage=0.1


Tree=24
num_leaves=31
num_cat=0
split_feature=8 6 6 6 6 2 2 4 4 0 4 1 2 5 5 5 2 2 2 0 6 4 2 2 2 9 3 4 1 6
split_gain=3.69361 13.5799 13.1509 18.465 11.778 11.6871 11.2168 11.0019 10.2068 21.3677 25.4153 12.7084 16.8227 9.27183 9.00249 8.88643 13.5464 20.2998 13.0098 13.2457 10.6011 16.8948 15.9454 20.7315 20.8682 17.0556 14.3676 12.7431 12.4954 12.195
threshold=3.5000000000000004 9583.1759500000026 79952.661570000011 93860.236915500005 7764.5953600000003 12.912138319386104 19.958171557818151 4451.0170324090805 2274.9353736369817 70584.460000000006 2109.6463255555468 52002.055000000008 53.315387001937616 53.954002129339791 23.383757890483569 12.564028413161253 72.019635880470958 70.612615467130823 73.711851119029646 65715.895000000004 28498.770175000005 1261.2261781109339 58.815549504575152 49.513036106493445 34.933739947749373 2.5000000000000004 30.895769158403478 1508.7981676451311 64262.355000000003 28123.033055000004
decision_type=2 2 2 2 2 2 2 2 2 2 2 2 2 2 2 2 2 2 2 2 2 2 2 2 2 2 2 2 2 2
left_child=1 4 6 -4 -1 -2 -3 8 9 10 15 -10 -13 -9 -11 -8 17 20 -18 -20 22 26 23 24 -17 29 -22 28 -24 -26
right_child=5 2 3 -5 -6 -7 7 13 11 14 -12 12 -14 -15 -16 16 18 -19 19 -21 21 -23 27 -25 25 -27 -28 -29 -30 -31
leaf_value=0.029451592145852884 -0.1058544152523207 0.13806747789048954 -0.13788075028350263 0.035807413336642634 -0.14719603856905025 -0.0011487574072859784 0.11351312420038395 0.10917086579216898 -0.1732070774442169 -0.050282263109552819 0.14442975093503149 -0.18855729353063297 0.011202686919573386 -0.0096923918491749299 -0.21926541004355893 0.088390449090791301 -0.1609786060932179 0.11171329814527636 0.017010105105172806 -0.15127440770581474 0.025700819861530541 0.0479262925441045 -0.072998200203180444 0.085593807970498884 -0.14772612840665575 0.020462366212848644 -0.052027551043536138 -0.17007949187705867 0.077106086538454674 0.027017267795384027
leaf_weight=5.9626082777977016 10.705715619027613 7.1947007477283469 13.748045682907106 11.032730802893637 10.285267293453215 2511.240737169981 8.4959233403205854 20.354671180248264 6.0167983919382086 9.1882838755846006 15.168871283531187 4.8834945410490027 30.833720207214355 9.6850529462099058 4.7994050830602637 20.990709409117699 7.9023938030004492 20.976846888661385 23.533428058028225 5.837376505136489 34.123077437281609 38.967583507299423 12.282112151384359 60.815322726964951 14.837233677506449 27.171482712030411 78.4615797996521 5.9304096400737754 10.111451819539068 5.4646652191877356
leaf_count=22 80 20 71 42 57 11000 27 61 33 40 41 28 121 39 28 67 44 63 89 31 128 137 58 203 79 107 350 33 33 20
internal_value=-4.60222e-06 0.00762592 0.0104998 -0.0605525 -0.0823703 -0.00159324 0.0141375 0.0122675 0.00832891 0.0131804 0.0175242 -0.0387586 -0.0161098 0.0708484 -0.108263 0.0124031 0.0100651 0.016517 -0.0470809 -0.016436 0.0100578 -0.00882601 0.0282165 0.0431049 0.00536287 -0.0313484 -0.028469 -0.0397387 -0.00522104 -0.10069
internal_weight=3047 525.055 508.807 24.7808 16.2479 2521.95 484.027 476.832 446.792 405.058 391.07 41.734 35.7172 30.0397 13.9877 375.902 367.406 330.132 37.2732 29.3708 309.156 151.552 157.603 129.279 68.4641 47.4734 112.585 28.324 22.3936 20.3019
internal_count=13152 2072 1993 113 79 11080 1880 1860 1760 1578 1510 182 149 100 68 1469 1442 1278 164 120 1215 615 600 476 273 206 478 124 91 99
is_linear=0
shrinkage=0.1


Tree=25
num_leaves=31
num_cat=0
split_feature=8 5 10 7 6 7 3 5 8 7 6 0 1 1 3 0 7 6 10 0 2 1 2 9 2 3 0 6 4 4
split_gain=3.97653 5.78393 4.40999 9.0139 5.45856 4.93408 6.00714 4.70269 3.93896 8.60466 9.05758 9.21931 13.4756 13.5133 9.11651 19.9117 18.247 17.2264 11.0862 16.3165 7.87076 9.59431 7.59515 6.665 6.55287 6.02945 6.59536 5.97127 9.58042 10.313
threshold=1.0000000180025095e-35 19.267845567387017 6.5000000000000009 28317.408249000004 29501.376685000007 23368.240100999999 59.458508298710179 25.504835699164328 21.500000000000004 19678.831094000005 10695.183185000002 68181.810000000012 71536.005000000019 97284.230000000025 48.733278772976071 57588.525000000001 27666.847407000005 18184.795200000004 5.5000000000000009 62920.035000000011 35.58318365897658 55495.985000000008 61.864128890838778 2.5000000000000004 44.104554368809374 72.549998128001874 58993.895000000011 42440.31579500001 585.07057047753926 1552.7199987149545
decision_type=2 2 2 2 2 2 2 2 2 2 2 2 2 2 2 2 2 2 2 2 2 2 2 2 2 2 2 2 2 2
left_child=1 -1 -3 5 -5 6 -4 -7 -2 -10 -11 14 22 23 15 20 25 -17 19 -19 21 -12 -13 -14 -21 26 -16 28 -18 -30
right_child=8 2 3 4 -6 7 -8 -9 9 10 11 12 13 -15 16 17 27 18 -20 24 -22 -23 -24 -25 -26 -27 -28 -29 29 -31
leaf_value=-0.031409449402757965 -0.0018332878604289935 0.044039460653562644 -0.081579304543691417 0.01902926630790848 -0.10200794320176516 0.0080623354566002024 0.070717520166201253 0.11271685187549657 0.1389990281346144 -0.097152867192672673 0.065291759582057587 0.023578741383224983 -0.15396955739309204 0.096207243003006565 -0.019549343268784394 -0.11552464283184463 0.029845080958773463 -0.13925467180127177 0.10454651029257925 -0.011024764029984232 -0.12189499306030323 -0.11802828200214732 0.12214035909539998 -0.004199828956024442 0.12989260688409146 -0.0015613678191696108 -0.15361481449820297 0.042608101387372838 -0.18074843012957009 -0.012037484291336539
leaf_weight=20.385681420564651 2682.9099404141307 61.680619984865189 6.1322124153375643 5.9073791205883017 10.090206727385519 7.3723124116659191 4.48351189494133 10.282016366720198 5.1947399228811255 7.7867632508277884 7.7466654479503649 12.224977970123289 6.2637100517749804 6.5131168961524954 4.9062844067812028 5.3930037990212432 17.367413260042667 5.2891416922211674 35.669537231326103 5.8725234270095807 9.9695701003074628 4.5211032181978226 21.690669097006321 5.6529530733823776 7.5327388569712639 5.5382632613182059 14.556509748101233 27.28431661427021 6.0072867274284354 9.1299314051866514
leaf_count=91 11644 226 30 23 49 29 16 33 15 45 30 47 35 23 26 31 70 34 117 28 62 27 67 24 24 23 96 105 37 45
internal_value=6.9695e-07 0.0173699 0.0267556 0.00267301 -0.0573129 0.0366181 -0.0172573 0.0690139 -0.000752065 0.0117455 0.00883231 0.0125985 0.0492116 -0.0196179 0.00110742 0.0248822 -0.0218835 0.0549437 0.0718545 0.00947696 -0.0558999 -0.00226811 0.0866136 -0.0829227 0.0681601 -0.0936223 -0.119819 0.00811447 -0.0208394 -0.0789913
internal_weight=3041.36 126.334 105.948 44.2676 15.9976 28.2701 10.6157 17.6543 2915.02 232.111 226.916 219.13 52.3454 18.4298 166.784 81.9943 84.79 59.7569 54.3639 18.6944 22.2373 12.2678 33.9156 11.9167 13.4053 25.0011 19.4628 59.7889 32.5046 15.1372
internal_count=13152 497 406 180 72 108 46 62 12655 1011 996 951 196 82 755 353 402 234 203 86 119 57 114 59 52 145 122 257 152 82
is_linear=0
shrinkage=0.1


Tree=26
num_leaves=31
num_cat=0
split_feature=4 1 2 8 5 8 9 7 4 4 8 8 0 8 8 2 4 8 8 5 2 2 2 6 10 7 0 9 3 7
split_gain=3.61512 9.37161 8.4703 12.4384 13.2694 11.4163 13.4906 11.8021 13.5652 16.5879 14.3425 8.67308 8.24079 21.1583 11.9353 8.24826 8.03923 7.15304 6.81747 11.7177 11.6921 13.8337 28.2601 20.5229 20.3415 12.2598 23.686 11.667 15.8349 12.132
threshold=-216.0281192447255 42645.790000000001 33.038226140968959 7.5000000000000009 20.937771863005036 17.500000000000004 2.5000000000000004 65073.244539000007 223.73537435211622 672.04366244200367 19.500000000000004 1.5000000000000002 65009.180000000008 12.500000000000002 2.5000000000000004 81.354473684126972 -197.84864820164509 10.500000000000002 13.500000000000002 55.918756559011619 93.669251802486471 68.518888729608946 63.13924863247037 14314.561630000002 9.5000000000000018 24744.826957000001 45117.780000000006 2.5000000000000004 38.026756593071362 21967.038600000003
decision_type=2 2 2 2 2 2 2 2 2 2 2 2 2 2 2 2 2 2 2 2 2 2 2 2 2 2 2 2 2 2
left_child=12 17 3 4 11 6 -5 8 10 -10 -7 -3 -1 14 -14 -16 -4 -2 27 20 21 22 -20 -23 -24 -25 -27 28 -18 -30
right_child=1 2 16 5 -6 7 -8 -9 9 -11 -12 -13 13 -15 15 -17 18 -19 19 -21 -22 23 24 25 -26 26 -28 -29 29 -31
leaf_value=0.002495538762933216 -0.0098132335041501845 -0.048187920447011923 -0.072697229286986062 -0.013204080661847868 -0.095271210500170289 0.060814671977857684 -0.11798786445725998 -0.1314636279866912 0.19300086164150182 -0.020535813248524087 -0.17140513877574887 0.073476524688218497 0.075632274353134007 0.10161597121191424 -0.0233266915565573 -0.16911370855785324 -0.088160048398258556 -0.10256272416596113 -0.008075813801381183 0.10253229599097735 0.079406342379423733 0.072314030477568014 0.099665339716823897 -0.10477508431375047 -0.072167725974591965 0.14965541504845972 -0.034561150680729971 0.014564812632493577 -0.048228702702468353 0.004242269158010536
leaf_weight=1001.8264506459236 17.010268703103065 7.5804392844438544 15.042871803045271 19.910522744059563 8.3238273561000806 5.2140647321939522 32.089531168341637 5.6710393428802481 7.6049850434064847 6.9738313108682632 5.4289192706346512 25.806299760937691 10.1662111133337 29.444615080952644 18.251522123813633 4.9288525432348242 22.691664338111877 16.266768097877502 406.04957900941372 9.7088571488857252 14.975327923893927 18.903774052858353 41.961747512221336 23.33219039440155 8.2424270957708341 7.214237004518508 214.65236146748066 627.2163462638855 50.348885044455528 353.06251352280378
leaf_count=4308 76 35 77 101 41 21 177 45 20 32 33 89 33 91 75 26 109 116 1886 30 48 66 134 140 43 19 1074 2510 239 1458
internal_value=2.52177e-06 -0.00253342 -0.00162992 -0.0268504 0.0176898 -0.0492625 -0.0778668 -0.0011146 0.028194 0.0908548 -0.0576392 0.0458527 0.00469817 0.0398408 -0.0147059 -0.0543254 0.000103041 -0.0551518 0.000711998 -0.00660888 -0.00804992 -0.00986802 0.000675312 -0.0280823 0.0714541 -0.0358224 -0.0285711 0.00589025 -0.00687856 -0.00230652
internal_weight=3035.9 1971.28 1938.01 124.603 41.7106 82.8929 52.0001 30.8928 25.2218 14.5788 10.643 33.3867 1064.62 62.7912 33.3466 23.1804 1813.4 33.277 1798.36 745.041 735.332 720.356 456.254 264.103 50.2042 245.199 221.867 1053.32 426.103 403.411
internal_count=13152 8619 8427 594 165 429 278 151 106 52 54 124 4533 225 134 101 7833 192 7756 3440 3410 3362 2063 1299 177 1233 1093 4316 1806 1697
is_linear=0
shrinkage=0.1


Tree=27
num_leaves=31
num_cat=0
split_feature=7 6 7 3 3 9 0 8 2 8 2 2 5 9 3 8 6 8 3 0 8 9 5 4 7 8 2 7 2 8
split_gain=3.26608 5.60934 5.0949 3.97348 8.51008 13.8035 7.28295 7.19624 5.92523 9.25523 12.5333 12.0635 8.09572 7.42186 7.30311 9.02978 7.05737 5.64989 9.57471 9.22732 5.6311 7.42615 9.54547 9.15954 5.29351 7.32897 17.8902 14.047 17.4624 15.617
threshold=74080.068886400011 56401.186575000007 72907.779867000019 36.146508539221621 34.726828345281383 3.5000000000000004 65327.325000000004 8.5000000000000018 29.318280468465286 3.5000000000000004 23.785094620493499 12.912138319386104 25.835164153307741 4.5000000000000009 24.380012667507241 6.5000000000000009 31506.073330000003 14.500000000000002 22.095905951569936 60684.995000000003 22.500000000000004 5.5000000000000009 23.964777136691332 796.9159694376832 58432.185212000004 8.5000000000000018 44.104554368809374 47647.207013900006 35.130189230635523 17.500000000000004
decision_type=2 2 2 2 2 2 2 2 2 2 2 2 2 2 2 2 2 2 2 2 2 2 2 2 2 2 2 2 2 2
left_child=2 -2 3 4 8 -6 7 -7 9 12 11 -11 -1 -13 15 -10 -12 18 -15 -19 -5 22 -22 -23 25 26 -16 28 -27 -29
right_child=1 -3 -4 20 5 6 -8 -9 14 10 16 13 -14 17 24 -17 -18 19 -20 -21 21 23 -24 -25 -26 27 -28 29 -30 -31
leaf_value=0.057918341289101255 -0.034458684076132173 0.044178537905423455 -0.063511897544833981 -0.0029071017571293024 0.050575096492714036 0.023423986696538342 0.061818899785702409 -0.080024368432829784 -0.021112872307555978 -0.10050896711705899 -0.080712926882396785 0.036989500514956725 -0.053317784224897913 0.035536887874804399 0.049274969735712194 0.096387998305758948 -0.021289563622147439 -0.076307750553271103 -0.111626555465688 0.085527736073419305 0.0008451013514708417 0.079914005123602916 0.076973310710913026 -0.11824329868958522 0.05923132165559556 -0.053407666419411207 -0.062976295487814721 -0.14842259200775562 0.02979043797516695 0.036684266437540053
leaf_weight=29.763412371277809 11.920281529426573 37.949497997760773 12.745715461671351 2280.2549246549606 92.35397008061409 10.290550813078882 8.2928015291690809 19.404699832201004 9.7393877059221285 10.146490208804606 38.999845862388611 55.760823532938957 8.3863496631383878 6.9374653995037106 63.737665757536888 19.911099642515182 40.994310691952705 5.6936694681644431 12.188342198729513 9.2417046129703504 34.568018510937691 3.473911948502062 31.460165575146675 7.1006086319684982 16.72808001190424 39.008098185062408 18.267460182309151 14.195475265383722 71.412131652235985 6.7131677567958823
leaf_count=105 62 136 85 10002 347 39 31 105 41 80 201 210 37 25 227 68 189 27 63 31 143 16 110 48 58 192 83 86 275 30
internal_value=2.22939e-06 0.025382 -0.000422815 -0.000151615 0.00705492 0.0297038 -0.0210369 -0.0441755 0.000876702 -0.0112746 -0.020759 0.00284786 0.0334656 0.0145233 0.0110817 0.0577921 -0.0502605 -0.0222557 -0.0582463 0.0238327 -0.0020112 0.0246574 0.0371176 -0.0531452 0.00506162 0.000814029 0.0242699 -0.0138324 0.000399086 -0.0889901
internal_weight=3027.64 49.8698 2977.77 2965.02 608.167 130.342 37.9881 29.6953 477.825 218.112 179.963 99.9685 38.1498 89.822 259.713 29.6505 79.9942 34.0612 19.1258 14.9354 2356.86 76.6027 66.0282 10.5745 230.062 213.334 82.0051 131.329 110.42 20.9086
internal_count=13152 198 12954 12869 2550 522 175 144 2028 968 826 436 142 356 1060 109 390 146 88 58 10319 317 253 64 951 893 310 583 467 116
is_linear=0
shrinkage=0.1


Tree=28
num_leaves=31
num_cat=0
split_feature=7 7 7 3 3 3 8 8 5 8 6 8 8 7 7 8 4 6 5 6 5 3 3 9 4 7 7 2 7 8
split_gain=3.24972 8.85264 9.03193 7.68601 9.09726 8.12964 7.74429 7.49011 14.0765 12.8999 10.9846 7.74762 7.44468 7.24537 7.17345 9.92787 15.4104 10.5697 10.4586 14.9385 11.7498 11.2587 9.70516 12.0312 9.30716 9.06306 13.3143 8.71528 8.37727 13.0092
threshold=41863.419109000009 40094.458160000002 39599.25716310001 81.450644388691828 79.997644077737576 79.435593169799276 19.500000000000004 14.500000000000002 27.834998929605202 5.5000000000000009 29948.531905000003 18.500000000000004 17.500000000000004 42070.724643000009 32631.919011000002 2.5000000000000004 -1075.6078430801642 53882.573250000009 20.937771863005036 12081.902080000002 22.813977703972924 58.897778504614827 49.569096153411358 3.5000000000000004 -1327.6357438722914 27113.777441000006 29808.070874000005 29.898222128583551 32154.584335000003 10.500000000000002
decision_type=2 2 2 2 2 2 2 2 2 2 2 2 2 2 2 2 2 2 2 2 2 2 2 2 2 2 2 2 2 2
left_child=1 2 3 4 5 14 -5 9 11 -3 -11 -9 -10 -2 15 16 24 28 19 -18 -20 27 23 -16 -1 -22 -27 -21 -17 -30
right_child=13 7 -4 6 -6 -7 -8 8 12 10 -12 -13 -14 -15 22 17 18 -19 20 21 25 -23 -24 -25 -26 26 -28 -29 29 -31
leaf_value=0.035797844138403194 -0.085544537128829548 -0.0035925002697304131 -0.07915571430868891 -0.057514192899506204 0.040130916781557009 -0.095589916585668219 0.05286983342295079 -0.0042513267149718063 -0.024164526800405223 0.02890993672141999 0.12441745372900895 -0.1100218321396743 0.10868051952944556 -0.0043103003970218932 0.014091988300238049 -0.0042750760672416897 -0.088268263530691754 0.06557961203831518 -0.069129446393352445 0.11174203278192835 0.048172041061683997 0.099873064489631735 0.026634256829639748 -0.048838754529590168 0.13273645661001468 -0.12730072534808232 0.037454149984547103 -0.012776965868570021 0.0054665349931302945 -0.10287230897721733
leaf_weight=25.475600346922874 11.133200816810129 31.352717727422714 14.165254950523375 38.622966721653938 60.347708076238632 8.7268662303686124 7.6077008545398703 16.686590701341633 6.402607440948489 23.056967779994011 25.207844153046608 11.83858013153076 12.366123557090758 795.26783385872841 89.606239587068558 1342.6518588364124 8.8971743881702405 21.127651542425156 30.420384094119072 7.0783188641071311 27.130030304193497 26.205676466226578 224.74270224571228 45.962597973644733 16.20402492582798 9.3626851290464419 10.302390441298483 27.3005301207304 22.26888382434845 22.066474050283432
leaf_count=107 63 124 71 199 220 51 32 73 27 91 72 62 42 3625 350 5907 46 71 144 21 97 84 871 245 46 48 38 113 90 122
internal_value=2.96868e-06 0.0019832 0.000423318 0.000967333 0.00188736 0.000713171 -0.0393494 0.0276258 -0.00389483 0.0463495 0.0787918 -0.0481484 0.0633629 -0.00543182 0.00114266 -0.00173372 0.0198263 -0.00461801 0.00458077 0.0327285 -0.0207477 0.0504975 0.0138875 -0.00724374 0.0734852 0.0107041 -0.0409868 0.0128605 -0.00568732 -0.0484556
internal_weight=3019.59 2213.19 2086.27 2072.11 2025.88 1965.53 46.2307 126.911 47.2939 79.6175 48.2648 28.5252 18.7687 806.401 1956.8 1596.49 188.377 1408.11 146.697 69.4817 77.2155 60.5845 360.312 135.569 41.6796 46.7951 19.6651 34.3788 1386.99 44.3354
internal_count=13152 9464 8973 8902 8671 8451 231 491 204 287 163 135 69 3688 8400 6934 744 6190 591 264 327 218 1466 595 153 183 86 134 6119 212
is_linear=0
shrinkage=0.1


Tree=29
num_leaves=31
num_cat=0
split_feature=2 3 3 8 8 6 9 5 2 8 4 8 8 9 8 2 2 8 3 8 3 8 3 2 8 2 8 2 6 6
split_gain=3.03913 10.2756 10.2362 10.6236 9.2381 20.54 10.3631 6.71372 5.97612 5.95601 5.91683 9.73533 5.61664 11.4796 7.02841 20.3518 18.9088 6.44297 4.32613 4.10257 5.48669 3.9768 3.8245 3.68027 3.53537 12.2613 13.0621 11.993 14.7727 12.138
